{"learner":{"attributes":{"scikit_learn":"{\"_estimator_type\": \"regressor\"}"},"feature_names":[],"feature_types":[],"gradient_booster":{"model":{"cats":{"enc":[],"feature_segments":[],"sorted_idx":[]},"gbtree_model_param":{"num_parallel_tree":"1","num_trees":"200"},"iteration_indptr":[0,1,2,3,4,5,6,7,8,9,10,11,12,13,14,15,16,17,18,19,20,21,22,23,24,25,26,27,28,29,30,31,32,33,34,35,36,37,38,39,40,41,42,43,44,45,46,47,48,49,50,51,52,53,54,55,56,57,58,59,60,61,62,63,64,65,66,67,68,69,70,71,72,73,74,75,76,77,78,79,80,81,82,83,84,85,86,87,88,89,90,91,92,93,94,95,96,97,98,99,100,101,102,103,104,105,106,107,108,109,110,111,112,113,114,115,116,117,118,119,120,121,122,123,124,125,126,127,128,129,130,131,132,133,134,135,136,137,138,139,140,141,142,143,144,145,146,147,148,149,150,151,152,153,154,155,156,157,158,159,160,161,162,163,164,165,166,167,168,169,170,171,172,173,174,175,176,177,178,179,180,181,182,183,184,185,186,187,188,189,190,191,192,193,194,195,196,197,198,199,200],"tree_info":[0,0,0,0,0,0,0,0,0,0,0,0,0,0,0,0,0,0,0,0,0,0,0,0,0,0,0,0,0,0,0,0,0,0,0,0,0,0,0,0,0,0,0,0,0,0,0,0,0,0,0,0,0,0,0,0,0,0,0,0,0,0,0,0,0,0,0,0,0,0,0,0,0,0,0,0,0,0,0,0,0,0,0,0,0,0,0,0,0,0,0,0,0,0,0,0,0,0,0,0,0,0,0,0,0,0,0,0,0,0,0,0,0,0,0,0,0,0,0,0,0,0,0,0,0,0,0,0,0,0,0,0,0,0,0,0,0,0,0,0,0,0,0,0,0,0,0,0,0,0,0,0,0,0,0,0,0,0,0,0,0,0,0,0,0,0,0,0,0,0,0,0,0,0,0,0,0,0,0,0,0,0,0,0,0,0,0,0,0,0,0,0,0,0,0,0,0,0,0,0],"trees":[{"base_weights":[1.311614E-2,-3.2434363E0,1.9200827E0,-4.6940355E0,-1.4103198E0,5.9160954E-1,3.3303123E0,-5.8157544E0,-3.54568E0,-1.6618513E0,-6.5832704E-1,-2.5765508E-1,1.177619E0,2.8177183E0,6.0336723E0,-7.1386874E-1,-6.0447507E0,-4.5874043E0,-2.727663E0,-1.3367367E0,-2.4625914E0,-3.7527782E-1,-1.0240649E0,-3.8031023E0,6.997912E-2,1.2817143E0,-2.5138688E0,2.9643264E0,-4.3138685E0,4.7833576E0,7.435016E0,-1.2615572E-1,7.177607E-3,-4.1766424E0,-6.700524E0,-5.948906E-1,-4.7871375E0,-4.102799E-1,-2.9557576E0,-2.0339794E0,-9.140548E-1,-3.087939E0,-9.031023E-1,-9.0771645E-2,-1.339632E-1,-1.419252E-1,-8.236947E-2,5.807481E-1,-5.7648593E-1,2.3997207E-1,-3.5138687E-1,1.3585373E0,-2.169252E0,-3.2615575E-1,-9.2822395E-2,2.5194802E0,5.6525784E0,-4.4616796E-2,-5.169252E-1,5.0118613E-1,2.3307481E-1,7.630743E-1,2.0538321E-1,-6.5307945E-1,-2.8983173E-1,-1.919252E-1,-6.91111E-1,5.3832056E-3,-9.461679E-2,-3.2031024E-1,-5.1818955E-1,7.177607E-3,-6.692519E-2,-2.5200275E-1,-4.4031024E-1,-1.1386871E-2,-2.3366426E-1,-1.2027889E-1,2.2459177E-3,5.3832056E-3,-3.247719E-1,-1.01540975E-1,5.3832056E-3,-2.4064898E-3,-9.461679E-2,7.384428E-2,5.3832056E-3,4.158325E-2,-1.6820763E-1,2.2513798E-1,1.0498782E-1,-2.928224E-1,5.3832056E-3,1.2934819E-1,3.0992088E-1,5.996676E-1,1.8307482E-1],"categories":[],"categories_nodes":[],"categories_segments":[],"categories_sizes":[],"default_left":[0,0,0,0,0,0,0,0,0,0,0,0,0,0,0,0,0,0,0,0,0,0,0,0,0,0,0,0,0,0,0,0,0,0,0,0,0,0,0,0,0,0,0,0,0,0,0,0,0,0,0,0,0,0,0,0,0,0,0,0,0,0,0,0,0,0,0,0,0,0,0,0,0,0,0,0,0,0,0,0,0,0,0,0,0,0,0,0,0,0,0,0,0,0,0,0,0],"id":0,"left_children":[1,3,5,7,9,11,13,15,17,19,21,23,25,27,29,31,33,35,37,39,41,43,45,47,49,51,53,55,57,59,61,-1,-1,63,65,67,69,71,73,75,77,79,81,-1,83,-1,-1,85,-1,87,-1,89,91,-1,-1,93,95,-1,-1,-1,-1,-1,-1,-1,-1,-1,-1,-1,-1,-1,-1,-1,-1,-1,-1,-1,-1,-1,-1,-1,-1,-1,-1,-1,-1,-1,-1,-1,-1,-1,-1,-1,-1,-1,-1,-1,-1],"loss_changes":[5.4649375E3,8.575935E2,1.0377957E3,2.1253076E2,2.6332703E1,1.4313675E2,3.557588E2,1.0083325E2,6.588464E1,2.4824036E1,3.5495205E0,1.373361E2,6.854736E1,2.5117273E2,3.8024902E1,2.241993E0,7.736914E1,2.8252258E1,2.733078E1,2.1423065E1,2.6467972E1,2.8335598E0,9.790802E-2,8.934842E1,6.7249176E1,4.695587E1,2.900385E0,2.536305E2,1.4235474E1,2.3293457E0,3.2860107E0,0E0,0E0,5.630597E1,4.916162E1,7.3457897E-1,6.53833E0,7.9707015E-1,1.980597E1,1.6587181E1,1.3817593E1,1.0716675E1,1.1293688E0,0E0,1.4946492E0,0E0,0E0,2.9261553E-1,0E0,3.6190754E1,0E0,4.255652E1,6.9066677E0,0E0,0E0,1.3387598E2,2.9789246E1,0E0,0E0,0E0,0E0,0E0,0E0,0E0,0E0,0E0,0E0,0E0,0E0,0E0,0E0,0E0,0E0,0E0,0E0,0E0,0E0,0E0,0E0,0E0,0E0,0E0,0E0,0E0,0E0,0E0,0E0,0E0,0E0,0E0,0E0,0E0,0E0,0E0,0E0,0E0,0E0],"parents":[2147483647,0,0,1,1,2,2,3,3,4,4,5,5,6,6,7,7,8,8,9,9,10,10,11,11,12,12,13,13,14,14,15,15,16,16,17,17,18,18,19,19,20,20,21,21,22,22,23,23,24,24,25,25,26,26,27,27,28,28,29,29,30,30,33,33,34,34,35,35,36,36,37,37,38,38,39,39,40,40,41,41,42,42,44,44,47,47,49,49,51,51,52,52,55,55,56,56],"right_children":[2,4,6,8,10,12,14,16,18,20,22,24,26,28,30,32,34,36,38,40,42,44,46,48,50,52,54,56,58,60,62,-1,-1,64,66,68,70,72,74,76,78,80,82,-1,84,-1,-1,86,-1,88,-1,90,92,-1,-1,94,96,-1,-1,-1,-1,-1,-1,-1,-1,-1,-1,-1,-1,-1,-1,-1,-1,-1,-1,-1,-1,-1,-1,-1,-1,-1,-1,-1,-1,-1,-1,-1,-1,-1,-1,-1,-1,-1,-1,-1,-1],"split_conditions":[1.1E1,7E0,1.4E1,3E0,2.2923E4,1.2E1,1.4333333E1,8.8816E1,6E0,2.2331E4,1.2E1,8.916E3,2.1E1,7.8E1,1.7E1,6E0,1E1,1.0395E2,9.88E3,1.12636665E2,8.5E0,1E1,1.0725E2,1.1E1,8.7E1,1.25E-1,9.6E1,4.874423E0,5E0,1.3E1,8E0,-1.2615572E-1,7.177607E-3,3.5555556E0,1.0312E2,4E0,1.2582E4,5E0,2.696E3,2E0,6E0,6E0,9.666667E0,-9.0771645E-2,4.2E1,-1.419252E-1,-8.236947E-2,4E0,-5.7648593E-1,2.5222498E1,-3.5138687E-1,7.3E0,5E0,-3.2615575E-1,-9.2822395E-2,3.2659864E0,3.3333334E-1,-4.4616796E-2,-5.169252E-1,5.0118613E-1,2.3307481E-1,7.630743E-1,2.0538321E-1,-6.5307945E-1,-2.8983173E-1,-1.919252E-1,-6.91111E-1,5.3832056E-3,-9.461679E-2,-3.2031024E-1,-5.1818955E-1,7.177607E-3,-6.692519E-2,-2.5200275E-1,-4.4031024E-1,-1.1386871E-2,-2.3366426E-1,-1.2027889E-1,2.2459177E-3,5.3832056E-3,-3.247719E-1,-1.01540975E-1,5.3832056E-3,-2.4064898E-3,-9.461679E-2,7.384428E-2,5.3832056E-3,4.158325E-2,-1.6820763E-1,2.2513798E-1,1.0498782E-1,-2.928224E-1,5.3832056E-3,1.2934819E-1,3.0992088E-1,5.996676E-1,1.8307482E-1],"split_indices":[12,10,12,11,59,12,10,22,10,58,28,59,37,2,12,0,28,8,58,22,10,12,8,6,2,32,6,21,0,6,43,0,0,26,36,0,59,0,55,40,0,11,10,0,2,0,0,0,0,23,0,50,0,0,0,29,24,0,0,0,0,0,0,0,0,0,0,0,0,0,0,0,0,0,0,0,0,0,0,0,0,0,0,0,0,0,0,0,0,0,0,0,0,0,0,0,0],"split_type":[0,0,0,0,0,0,0,0,0,0,0,0,0,0,0,0,0,0,0,0,0,0,0,0,0,0,0,0,0,0,0,0,0,0,0,0,0,0,0,0,0,0,0,0,0,0,0,0,0,0,0,0,0,0,0,0,0,0,0,0,0,0,0,0,0,0,0,0,0,0,0,0,0,0,0,0,0,0,0,0,0,0,0,0,0,0,0,0,0,0,0,0,0,0,0,0,0],"sum_hessian":[8.78E2,3.24E2,5.54E2,1.8E2,1.44E2,2.86E2,2.68E2,8.9E1,9.1E1,1.07E2,3.7E1,1.17E2,1.69E2,2.27E2,4.1E1,4E0,8.5E1,3.8E1,5.3E1,7.8E1,2.9E1,2.2E1,1.5E1,9E0,1.08E2,1.65E2,4E0,2.23E2,4E0,2.4E1,1.7E1,2E0,2E0,2.4E1,6.1E1,2E0,3.6E1,5E0,4.8E1,2.8E1,5E1,2E1,9E0,6E0,1.6E1,3E0,1.2E1,3E0,6E0,1.04E2,4E0,1.62E2,3E0,2E0,2E0,1.93E2,3E1,1E0,3E0,2.1E1,3E0,1.6E1,1E0,7E0,1.7E1,3E0,5.8E1,1E0,1E0,9E0,2.7E1,2E0,3E0,3.9E1,9E0,4E0,2.4E1,3.8E1,1.2E1,1E0,1.9E1,8E0,1E0,1.5E1,1E0,2E0,1E0,9.6E1,8E0,4E1,1.22E2,2E0,1E0,6.3E1,1.3E2,2.7E1,3E0],"tree_param":{"num_deleted":"0","num_feature":"65","num_nodes":"97","size_leaf_vector":"1"}},{"base_weights":[1.01930626E-1,-2.7847452E0,1.769367E0,-4.098125E0,-1.1671729E0,6.186552E-1,3.0846186E0,-5.167956E0,-3.110768E0,-1.5461423E0,-8.4940773E-1,-1.7849152E-1,1.1726211E0,3.2517085E0,-4.3915606E0,-1.5328637E-1,-5.423153E0,-4.060035E0,-2.3810918E0,-1.8483882E0,-2.1822453E-1,-1.0500644E0,-1.4992765E-1,-2.7214618E0,1.00546055E-1,1.3004457E0,-1.3011208E0,2.8780105E0,5.707587E0,-4.238596E-2,-5.100329E-1,-8.8309005E-2,2.4993706E-1,-5.555292E0,-2.6790968E-1,-1.3678977E0,-4.328625E0,-2.529541E-1,-2.5430446E0,-1.089952E0,-2.252035E0,-5.4938495E-1,1.4411082E-2,-1.3848553E0,-3.7840593E-1,-5.8766335E-1,9.730912E-3,7.062602E-1,-5.2707285E-1,2.2133563E-1,-3.1557116E-1,-1.9250059E-1,1.4510236E0,1.3351174E-1,-2.2450626E0,1.8763933E0,3.355834E0,6.7146945E0,1.1515322E0,3.9938737E-2,6.6991174E-3,-4.7353026E-1,-7.1346325E-1,-8.012519E-2,3.9938737E-2,5.114031E-3,-1.7354424E-1,-1.8300796E-1,-4.505674E-1,6.6991174E-3,-4.8858132E-2,-1.4099829E-1,-2.933663E-1,-4.7995277E-2,-1.944957E-1,-8.194405E-2,-2.4213775E-1,-6.6079095E-2,5.952549E-3,-7.205861E-2,-1.7026027E-1,-5.4287653E-2,1.50661785E-2,5.2709104E-3,-7.03177E-2,8.270561E-2,5.114031E-3,-2.8157357E-2,9.7639985E-2,1.556558E-1,-1.3975917E-1,1.10149644E-1,2.2680323E-1,-3.1702444E-1,-7.586153E-2,-1.2096091E-2,3.1955805E-1,3.6040074E-1,7.407612E-2,7.0599884E-1,1.714111E-1,-9.2569105E-2,4.2297268E-1],"categories":[],"categories_nodes":[],"categories_segments":[],"categories_sizes":[],"default_left":[0,0,0,0,0,0,0,0,0,0,0,0,0,0,0,0,0,0,0,0,0,0,0,0,0,0,0,0,0,0,0,0,0,0,0,0,0,0,0,0,0,0,0,0,0,0,0,0,0,0,0,0,0,0,0,0,0,0,0,0,0,0,0,0,0,0,0,0,0,0,0,0,0,0,0,0,0,0,0,0,0,0,0,0,0,0,0,0,0,0,0,0,0,0,0,0,0,0,0,0,0,0,0],"id":1,"left_children":[1,3,5,7,9,11,13,15,17,19,21,23,25,27,29,31,33,35,37,39,41,43,45,47,49,51,53,55,57,-1,-1,-1,59,61,63,65,67,69,71,73,75,77,-1,79,81,83,-1,85,-1,87,-1,89,91,-1,93,95,97,99,101,-1,-1,-1,-1,-1,-1,-1,-1,-1,-1,-1,-1,-1,-1,-1,-1,-1,-1,-1,-1,-1,-1,-1,-1,-1,-1,-1,-1,-1,-1,-1,-1,-1,-1,-1,-1,-1,-1,-1,-1,-1,-1,-1,-1],"loss_changes":[4.154033E3,6.665547E2,8.25963E2,1.677207E2,1.5907227E1,1.295958E2,3.3282446E2,1.04106445E2,5.4749878E1,2.5283539E1,1.10709915E1,8.613332E1,5.6395508E1,2.1301245E2,1.4711266E1,1.6920866E0,5.1645996E1,2.2279053E1,1.8312897E1,1.3464661E1,1.6390569E0,1.3417595E1,2.1134481E0,1.08580666E2,4.396389E1,3.73721E1,2.5393524E1,9.8515625E1,1.390979E2,0E0,0E0,0E0,8.260985E-2,6.463867E1,1.387703E0,2.6965494E0,7.2370605E0,4.0966976E-1,1.8435944E1,9.4975605E0,6.021591E0,5.141876E-1,0E0,7.4269867E0,1.9961445E0,5.548661E-1,0E0,4.325192E-1,0E0,4.0905907E1,0E0,3.5899834E1,4.0336792E1,0E0,7.2216415E0,1.9273306E2,9.273193E1,3.279187E1,4.8674103E1,0E0,0E0,0E0,0E0,0E0,0E0,0E0,0E0,0E0,0E0,0E0,0E0,0E0,0E0,0E0,0E0,0E0,0E0,0E0,0E0,0E0,0E0,0E0,0E0,0E0,0E0,0E0,0E0,0E0,0E0,0E0,0E0,0E0,0E0,0E0,0E0,0E0,0E0,0E0,0E0,0E0,0E0,0E0,0E0],"parents":[2147483647,0,0,1,1,2,2,3,3,4,4,5,5,6,6,7,7,8,8,9,9,10,10,11,11,12,12,13,13,14,14,15,15,16,16,17,17,18,18,19,19,20,20,21,21,22,22,23,23,24,24,25,25,26,26,27,27,28,28,32,32,33,33,34,34,35,35,36,36,37,37,38,38,39,39,40,40,41,41,43,43,44,44,45,45,47,47,49,49,51,51,52,52,54,54,55,55,56,56,57,57,58,58],"right_children":[2,4,6,8,10,12,14,16,18,20,22,24,26,28,30,32,34,36,38,40,42,44,46,48,50,52,54,56,58,-1,-1,-1,60,62,64,66,68,70,72,74,76,78,-1,80,82,84,-1,86,-1,88,-1,90,92,-1,94,96,98,100,102,-1,-1,-1,-1,-1,-1,-1,-1,-1,-1,-1,-1,-1,-1,-1,-1,-1,-1,-1,-1,-1,-1,-1,-1,-1,-1,-1,-1,-1,-1,-1,-1,-1,-1,-1,-1,-1,-1,-1,-1,-1,-1,-1,-1],"split_conditions":[1.1E1,7E0,1.4E1,3E0,1.142E2,1.2E1,7.8E1,1.536E3,6E0,9E0,6E0,8.916E3,6.8E1,1.7E1,5E0,5E1,8.885E1,3.25E0,1.448E3,3E1,6.548E3,2.2324E4,1.0248626E1,1.146E2,8E1,3.7267798E-1,6E0,3.2659864E0,1.821E3,-4.238596E-2,-5.100329E-1,-8.8309005E-2,5E0,3E0,5E0,4E0,9.88E3,5E0,4E0,6E0,1.8330302E0,5.9E1,1.4411082E-2,1.5106E4,2.3969858E1,2.5E1,9.730912E-3,4E0,-5.2707285E-1,1.2091E2,-3.1557116E-1,1.5491934E0,2.828427E0,1.3351174E-1,6.4E0,1.125E1,1.3746E2,2.5571917E1,1.5E1,3.9938737E-2,6.6991174E-3,-4.7353026E-1,-7.1346325E-1,-8.012519E-2,3.9938737E-2,5.114031E-3,-1.7354424E-1,-1.8300796E-1,-4.505674E-1,6.6991174E-3,-4.8858132E-2,-1.4099829E-1,-2.933663E-1,-4.7995277E-2,-1.944957E-1,-8.194405E-2,-2.4213775E-1,-6.6079095E-2,5.952549E-3,-7.205861E-2,-1.7026027E-1,-5.4287653E-2,1.50661785E-2,5.2709104E-3,-7.03177E-2,8.270561E-2,5.114031E-3,-2.8157357E-2,9.7639985E-2,1.556558E-1,-1.3975917E-1,1.10149644E-1,2.2680323E-1,-3.1702444E-1,-7.586153E-2,-1.2096091E-2,3.1955805E-1,3.6040074E-1,7.407612E-2,7.0599884E-1,1.714111E-1,-9.2569105E-2,4.2297268E-1],"split_indices":[12,10,12,11,8,12,2,56,10,10,0,59,42,12,0,1,50,50,57,2,57,59,23,8,2,48,0,29,9,0,0,0,0,13,0,0,58,0,11,19,29,1,0,58,23,2,0,0,0,14,0,21,13,0,7,18,8,31,7,0,0,0,0,0,0,0,0,0,0,0,0,0,0,0,0,0,0,0,0,0,0,0,0,0,0,0,0,0,0,0,0,0,0,0,0,0,0,0,0,0,0,0,0],"split_type":[0,0,0,0,0,0,0,0,0,0,0,0,0,0,0,0,0,0,0,0,0,0,0,0,0,0,0,0,0,0,0,0,0,0,0,0,0,0,0,0,0,0,0,0,0,0,0,0,0,0,0,0,0,0,0,0,0,0,0,0,0,0,0,0,0,0,0,0,0,0,0,0,0,0,0,0,0,0,0,0,0,0,0,0,0,0,0,0,0,0,0,0,0,0,0,0,0,0,0,0,0,0,0],"sum_hessian":[8.61E2,3.15E2,5.46E2,1.73E2,1.42E2,2.92E2,2.54E2,8.1E1,9.2E1,6.3E1,7.9E1,1.2E2,1.72E2,2.49E2,5E0,4E0,7.7E1,3.8E1,5.4E1,5.1E1,1.2E1,6.1E1,1.8E1,1.1E1,1.09E2,1.64E2,8E0,2.18E2,3.1E1,1E0,4E0,1E0,3E0,7.5E1,2E0,4E0,3.4E1,4E0,5E1,1.9E1,3.2E1,6E0,6E0,4E1,2.1E1,6E0,1.2E1,5E0,6E0,1.06E2,3E0,1.5E1,1.49E2,2E0,6E0,7.2E1,1.46E2,2.5E1,6E0,1E0,2E0,5.2E1,2.3E1,1E0,1E0,1E0,3E0,3E0,3.1E1,2E0,2E0,1.4E1,3.6E1,1.2E1,7E0,4E0,2.8E1,5E0,1E0,1.4E1,2.6E1,1.6E1,5E0,1E0,5E0,4E0,1E0,6.4E1,4.2E1,6E0,9E0,1.06E2,4.3E1,3E0,3E0,2.9E1,4.3E1,1.33E2,1.3E1,2.3E1,2E0,4E0,2E0],"tree_param":{"num_deleted":"0","num_feature":"65","num_nodes":"103","size_leaf_vector":"1"}},{"base_weights":[-3.6936495E-2,-2.6260235E0,1.4947705E0,-3.8481016E0,-1.0992787E0,8.4296507E-1,3.51246E0,-4.7939787E0,-2.880726E0,-5.369035E-1,-1.4270958E0,3.924791E-1,2.6620975E0,3.9263282E0,8.2260257E-1,-6.392773E-1,-5.033672E0,-3.1146655E0,3.7149864E-1,-1.029704E0,-3.2636073E-1,-8.459229E-1,-1.9301064E0,8.417708E-2,1.1639707E0,1.127148E0,3.7811632E0,3.5773528E0,6.3892612E0,1.9089545E0,-1.3124229E0,-1.0058095E-1,6.2524797E-3,-5.4910903E0,-3.1798146E0,-3.8730497E0,-2.4190984E0,4.858351E-3,4.172206E-2,-1.3638669E0,-6.182587E-2,-1.002538E0,-1.2598711E-1,-3.8875365E-1,-1.3750882E0,-1.2550946E0,-2.5009134E0,8.246302E-1,-2.1509452E-1,1.3109345E0,-2.5071904E-1,-1.9562688E0,2.227408E0,1.6192229E-1,4.20817E0,3.8815222E0,1.9253575E0,1.8192959E-1,6.6184837E-1,8.282968E-1,4.1333604E-1,-1.6501267E-1,-3.12109E-2,-4.613216E-1,-6.6642356E-1,-5.2087158E-2,-4.366952E-1,-2.2772682E-1,-4.344793E-1,-2.686569E-1,-7.7935755E-2,-3.053379E-2,-1.4714657E-1,-1.9443557E-1,-4.556821E-2,1.4773193E-2,-5.3740203E-2,-5.791545E-2,1.8358476E-2,-1.7593889E-1,-1.8515524E-2,-1.6032752E-1,-3.583243E-2,-2.668975E-1,-9.513471E-2,-5.4471295E-2,1.2827753E-1,-9.432789E-2,1.972921E-2,1.5335323E-1,-9.123036E-2,-4.1341144E-1,1.8464725E-2,2.5149682E-1,-2.6245782E-1,9.362393E-2,-1.8548313E-1,2.6352724E-1,4.681286E-1,5.006242E-1,3.1895968E-1,-2.0731251E-1,2.5547382E-1,-1.3960076E-2,1.263053E-1],"categories":[],"categories_nodes":[],"categories_segments":[],"categories_sizes":[],"default_left":[0,0,0,0,0,0,0,0,0,0,0,0,0,0,0,0,0,0,0,0,0,0,0,0,0,0,0,0,0,0,0,0,0,0,0,0,0,0,0,0,0,0,0,0,0,0,0,0,0,0,0,0,0,0,0,0,0,0,0,0,0,0,0,0,0,0,0,0,0,0,0,0,0,0,0,0,0,0,0,0,0,0,0,0,0,0,0,0,0,0,0,0,0,0,0,0,0,0,0,0,0,0,0,0,0],"id":2,"left_children":[1,3,5,7,9,11,13,15,17,19,21,23,25,27,29,31,33,35,37,39,41,43,45,47,49,51,53,55,57,59,61,-1,-1,63,65,67,69,-1,-1,71,-1,73,75,77,79,81,83,85,87,89,-1,91,93,95,97,99,101,-1,-1,103,-1,-1,-1,-1,-1,-1,-1,-1,-1,-1,-1,-1,-1,-1,-1,-1,-1,-1,-1,-1,-1,-1,-1,-1,-1,-1,-1,-1,-1,-1,-1,-1,-1,-1,-1,-1,-1,-1,-1,-1,-1,-1,-1,-1,-1],"loss_changes":[3.4461726E3,5.984236E2,7.151061E2,1.4997827E2,2.5965454E1,3.3822556E2,1.4483203E2,8.5413086E1,7.039203E1,5.3705025E0,2.496988E1,7.910686E1,1.3659021E2,7.5986084E1,4.6573746E1,1.6062868E0,5.3770508E1,3.546881E1,8.308005E-2,1.3566151E0,5.2932158E0,1.0109831E1,1.5355576E1,5.3138958E1,5.4541916E1,1.2648958E2,7.1954285E1,4.428296E1,1.5770264E0,2.7826027E1,1.8496504E0,0E0,0E0,3.7228027E1,5.7699463E1,1.9464905E1,1.8519592E1,0E0,0E0,4.6187687E-1,0E0,3.7493382E0,3.6829784E0,2.8306668E0,8.820084E0,6.91922E0,3.9714355E0,4.398644E1,5.153629E1,4.692871E1,0E0,4.73892E1,4.427214E1,1.1106204E1,1.8918396E1,5.0959106E1,5.0594505E1,0E0,0E0,4.3843174E0,0E0,0E0,0E0,0E0,0E0,0E0,0E0,0E0,0E0,0E0,0E0,0E0,0E0,0E0,0E0,0E0,0E0,0E0,0E0,0E0,0E0,0E0,0E0,0E0,0E0,0E0,0E0,0E0,0E0,0E0,0E0,0E0,0E0,0E0,0E0,0E0,0E0,0E0,0E0,0E0,0E0,0E0,0E0,0E0,0E0],"parents":[2147483647,0,0,1,1,2,2,3,3,4,4,5,5,6,6,7,7,8,8,9,9,10,10,11,11,12,12,13,13,14,14,15,15,16,16,17,17,18,18,19,19,20,20,21,21,22,22,23,23,24,24,25,25,26,26,27,27,28,28,29,29,30,30,33,33,34,34,35,35,36,36,39,39,41,41,42,42,43,43,44,44,45,45,46,46,47,47,48,48,49,49,51,51,52,52,53,53,54,54,55,55,56,56,59,59],"right_children":[2,4,6,8,10,12,14,16,18,20,22,24,26,28,30,32,34,36,38,40,42,44,46,48,50,52,54,56,58,60,62,-1,-1,64,66,68,70,-1,-1,72,-1,74,76,78,80,82,84,86,88,90,-1,92,94,96,98,100,102,-1,-1,104,-1,-1,-1,-1,-1,-1,-1,-1,-1,-1,-1,-1,-1,-1,-1,-1,-1,-1,-1,-1,-1,-1,-1,-1,-1,-1,-1,-1,-1,-1,-1,-1,-1,-1,-1,-1,-1,-1,-1,-1,-1,-1,-1,-1,-1],"split_conditions":[1.1E1,7E0,1.2E1,3E0,1.619924E1,4.031129E0,2.2696932E1,8.8816E1,2.8674417E0,1E1,6E0,1.05E1,2.499E3,1.5666667E1,4.031129E0,6E0,1.34854E2,6E0,9.088E1,8.08E0,2.1860514E0,8E0,1E1,2.104134E0,3.559026E0,5.897E3,1.3E1,2.721E3,2.393E3,3.3E1,1.632E3,-1.0058095E-1,6.2524797E-3,3E0,1.1477E4,7E0,6E0,4.858351E-3,4.172206E-2,1.3E3,-6.182587E-2,9.9E1,2.7221315E0,1.8856181E0,1.1E1,2.4350517E1,2.904E1,7E0,1.577E3,1.22E1,-2.5071904E-1,2.389E3,3E1,1.2668E2,1.5E1,1.1E1,8E0,1.8192959E-1,6.6184837E-1,1.1E1,4.1333604E-1,-1.6501267E-1,-3.12109E-2,-4.613216E-1,-6.6642356E-1,-5.2087158E-2,-4.366952E-1,-2.2772682E-1,-4.344793E-1,-2.686569E-1,-7.7935755E-2,-3.053379E-2,-1.4714657E-1,-1.9443557E-1,-4.556821E-2,1.4773193E-2,-5.3740203E-2,-5.791545E-2,1.8358476E-2,-1.7593889E-1,-1.8515524E-2,-1.6032752E-1,-3.583243E-2,-2.668975E-1,-9.513471E-2,-5.4471295E-2,1.2827753E-1,-9.432789E-2,1.972921E-2,1.5335323E-1,-9.123036E-2,-4.1341144E-1,1.8464725E-2,2.5149682E-1,-2.6245782E-1,9.362393E-2,-1.8548313E-1,2.6352724E-1,4.681286E-1,5.006242E-1,3.1895968E-1,-2.0731251E-1,2.5547382E-1,-1.3960076E-2,1.263053E-1],"split_indices":[12,10,10,11,23,29,15,22,13,12,19,10,56,10,29,0,30,10,8,38,53,47,42,53,13,57,12,56,56,2,9,0,0,13,57,47,0,0,0,5,0,8,29,13,28,23,15,40,9,38,0,56,52,8,12,11,11,0,0,11,0,0,0,0,0,0,0,0,0,0,0,0,0,0,0,0,0,0,0,0,0,0,0,0,0,0,0,0,0,0,0,0,0,0,0,0,0,0,0,0,0,0,0,0,0],"split_type":[0,0,0,0,0,0,0,0,0,0,0,0,0,0,0,0,0,0,0,0,0,0,0,0,0,0,0,0,0,0,0,0,0,0,0,0,0,0,0,0,0,0,0,0,0,0,0,0,0,0,0,0,0,0,0,0,0,0,0,0,0,0,0,0,0,0,0,0,0,0,0,0,0,0,0,0,0,0,0,0,0,0,0,0,0,0,0,0,0,0,0,0,0,0,0,0,0,0,0,0,0,0,0,0,0],"sum_hessian":[8.67E2,3.22E2,5.45E2,1.78E2,1.44E2,4.13E2,1.32E2,8.8E1,9E1,5.4E1,9E1,3.32E2,8.1E1,1.14E2,1.8E1,5E0,8.3E1,8.4E1,6E0,1.5E1,3.9E1,4.3E1,4.7E1,2.38E2,9.4E1,3.5E1,4.6E1,1.02E2,1.2E1,1.2E1,6E0,3E0,2E0,6.5E1,1.8E1,3.8E1,4.6E1,1E0,5E0,7E0,8E0,8E0,3.1E1,2.4E1,1.9E1,2.3E1,2.4E1,6.8E1,1.7E2,9.1E1,3E0,9E0,2.6E1,5E0,4.1E1,8.5E1,1.7E1,1E0,1.1E1,9E0,3E0,4E0,2E0,4E1,2.5E1,6E0,1.2E1,1E1,2.8E1,3.9E1,7E0,1E0,6E0,2E0,6E0,1.9E1,1.2E1,1.8E1,6E0,1.4E1,5E0,1.6E1,7E0,2.1E1,3E0,1.7E1,5.1E1,6.1E1,1.09E2,8.3E1,8E0,4E0,5E0,2.5E1,1E0,4E0,1E0,1.1E1,3E1,3E1,5.5E1,2E0,1.5E1,3E0,6E0],"tree_param":{"num_deleted":"0","num_feature":"65","num_nodes":"105","size_leaf_vector":"1"}},{"base_weights":[7.412629E-2,-1.3949142E0,1.8572547E0,-3.7301126E0,-7.05491E-1,1.1636721E0,3.2052643E0,-2.2579353E0,-4.223225E0,-1.5536655E0,-1.0247799E-1,5.9062356E-1,2.519906E0,3.6689484E0,7.676451E-1,-3.6810827E-1,-3.0503323E0,-4.5316935E0,-2.0461838E0,-4.6154246E0,-1.1977373E0,-1.7365302E0,1.3268068E-1,-9.17399E-2,1.6063974E0,2.898227E0,-3.6588879E0,3.4113495E0,7.1191937E-1,3.3065653E-1,2.2147885E-1,-1.2127211E0,1.2019914E-1,-3.6138043E0,-1.4071305E-1,-4.631539E0,-7.2468823E-1,-4.0400105E0,-5.4426944E-1,-5.5273896E-1,-4.976821E-1,-1.5415566E0,-5.1372206E-1,-4.0602076E-1,-3.7558613E0,-7.803484E-2,1.2942172E0,1.4564021E-1,-2.3277209E0,-2.240517E0,1.9681402E0,3.1322665E0,-1.0047805E0,-7.5333074E-2,-4.1969442E-1,3.7702754E0,1.8369002E0,9.9243325E-1,-1.3520699E0,-3.3382606E-2,-1.303566E-1,-4.2955565E-1,-2.4803267E-1,-3.606256E-1,-5.1676106E-1,4.61545E-3,-1.1331868E-1,-4.4772625E-1,-1.1455002E-1,2.9948583E-2,-8.7543555E-2,-7.1792476E-2,8.152294E-3,-1.8218428E-1,-7.384295E-2,-2.7579008E-2,-1.0888529E-1,7.022586E-2,-1.5923288E-1,-4.2154637E-1,4.200816E-2,6.1467227E-2,-5.2992232E-2,3.036267E-2,1.4801902E-1,7.4338205E-2,-1.05400465E-1,-9.231376E-3,-3.1544596E-1,-2.9841125E-1,-9.367919E-2,2.167811E-1,-1.8683767E-1,1.9043204E-1,3.7582305E-1,-2.2474222E-1,-1.3226462E-2,3.8127393E-1,5.9191226E-3,2.3029335E-1,-8.359831E-2,-1.2857723E-2,1.3098523E-1,-1.5203385E-1,-1.7122889E-2],"categories":[],"categories_nodes":[],"categories_segments":[],"categories_sizes":[],"default_left":[0,0,0,0,0,0,0,0,0,0,0,0,0,0,0,0,0,0,0,0,0,0,0,0,0,0,0,0,0,0,0,0,0,0,0,0,0,0,0,0,0,0,0,0,0,0,0,0,0,0,0,0,0,0,0,0,0,0,0,0,0,0,0,0,0,0,0,0,0,0,0,0,0,0,0,0,0,0,0,0,0,0,0,0,0,0,0,0,0,0,0,0,0,0,0,0,0,0,0,0,0,0,0,0,0],"id":3,"left_children":[1,3,5,7,9,11,13,15,17,19,21,23,25,27,29,31,33,35,37,39,41,43,45,47,49,51,53,55,-1,-1,57,59,-1,61,-1,63,65,67,69,-1,71,73,75,77,79,81,83,85,87,89,91,93,95,-1,-1,97,99,101,103,-1,-1,-1,-1,-1,-1,-1,-1,-1,-1,-1,-1,-1,-1,-1,-1,-1,-1,-1,-1,-1,-1,-1,-1,-1,-1,-1,-1,-1,-1,-1,-1,-1,-1,-1,-1,-1,-1,-1,-1,-1,-1,-1,-1,-1,-1],"loss_changes":[2.3313154E3,7.8301917E2,3.7212256E2,7.104431E1,1.9317278E2,2.0602084E2,1.5090234E2,4.380194E1,4.5794434E1,1.6556525E2,8.553647E1,1.3114835E2,1.9527203E2,7.703467E1,3.1161137E1,1.4718944E1,1.4358765E1,2.363147E1,3.373583E1,5.7332916E1,3.2603302E1,7.3703735E1,4.7827976E1,6.0847637E1,1.1017078E2,7.165662E1,4.6550903E0,5.4106323E1,0E0,0E0,2.5604525E1,1.23737335E-1,0E0,9.368744E-1,0E0,1.9288452E1,9.969661E-1,1.1994553E0,2.497566E0,0E0,5.687899E-1,1.981459E1,6.4049644E0,2.4783918E1,2.2882843E1,5.228799E1,5.0772705E0,7.5359634E1,2.0037868E1,3.9906158E0,5.7673065E1,4.7417297E1,5.123869E0,0E0,0E0,1.3484253E1,2.9329575E1,5.150036E0,1.1305637E0,0E0,0E0,0E0,0E0,0E0,0E0,0E0,0E0,0E0,0E0,0E0,0E0,0E0,0E0,0E0,0E0,0E0,0E0,0E0,0E0,0E0,0E0,0E0,0E0,0E0,0E0,0E0,0E0,0E0,0E0,0E0,0E0,0E0,0E0,0E0,0E0,0E0,0E0,0E0,0E0,0E0,0E0,0E0,0E0,0E0,0E0],"parents":[2147483647,0,0,1,1,2,2,3,3,4,4,5,5,6,6,7,7,8,8,9,9,10,10,11,11,12,12,13,13,14,14,15,15,16,16,17,17,18,18,19,19,20,20,21,21,22,22,23,23,24,24,25,25,26,26,27,27,30,30,31,31,33,33,35,35,36,36,37,37,38,38,40,40,41,41,42,42,43,43,44,44,45,45,46,46,47,47,48,48,49,49,50,50,51,51,52,52,55,55,56,56,57,57,58,58],"right_children":[2,4,6,8,10,12,14,16,18,20,22,24,26,28,30,32,34,36,38,40,42,44,46,48,50,52,54,56,-1,-1,58,60,-1,62,-1,64,66,68,70,-1,72,74,76,78,80,82,84,86,88,90,92,94,96,-1,-1,98,100,102,104,-1,-1,-1,-1,-1,-1,-1,-1,-1,-1,-1,-1,-1,-1,-1,-1,-1,-1,-1,-1,-1,-1,-1,-1,-1,-1,-1,-1,-1,-1,-1,-1,-1,-1,-1,-1,-1,-1,-1,-1,-1,-1,-1,-1,-1,-1],"split_conditions":[1.3E1,6E0,1.2E1,1.2879E4,1.1E1,4.031129E0,2.2696932E1,1.10635E2,3.3704598E0,3E0,9.918E3,1.9445E1,1.5202E2,5.713143E0,1.0671E2,9E0,1.598E3,1.01E1,5.73E0,1.3398E2,7.8E0,6E0,1.1E1,2.1638018E1,8.333333E0,2.2331E4,5E0,2.155E4,7.1191937E-1,3.3065653E-1,4.031129E0,4E0,1.2019914E-1,3E0,-1.4071305E-1,2.5E-1,4E0,5.8E1,3.1874754E0,-5.5273896E-1,6E0,1.1E1,2.542E4,7.64E0,2.0490139E1,7.4E1,7.5555553E0,2.5166E4,1.5508E4,9.25E0,2.6236E4,1.4879E4,5E0,-7.5333074E-2,-4.1969442E-1,2.8124308E1,4.159664E0,1.2333333E1,1E1,-3.3382606E-2,-1.303566E-1,-4.2955565E-1,-2.4803267E-1,-3.606256E-1,-5.1676106E-1,4.61545E-3,-1.1331868E-1,-4.4772625E-1,-1.1455002E-1,2.9948583E-2,-8.7543555E-2,-7.1792476E-2,8.152294E-3,-1.8218428E-1,-7.384295E-2,-2.7579008E-2,-1.0888529E-1,7.022586E-2,-1.5923288E-1,-4.2154637E-1,4.200816E-2,6.1467227E-2,-5.2992232E-2,3.036267E-2,1.4801902E-1,7.4338205E-2,-1.05400465E-1,-9.231376E-3,-3.1544596E-1,-2.9841125E-1,-9.367919E-2,2.167811E-1,-1.8683767E-1,1.9043204E-1,3.7582305E-1,-2.2474222E-1,-1.3226462E-2,3.8127393E-1,5.9191226E-3,2.3029335E-1,-8.359831E-2,-1.2857723E-2,1.3098523E-1,-1.5203385E-1,-1.7122889E-2],"split_indices":[20,10,10,59,20,29,15,14,21,11,58,23,30,21,36,20,9,38,41,8,26,37,10,31,10,58,0,58,0,0,29,0,0,11,0,25,0,1,29,0,0,28,58,41,31,3,26,59,58,18,58,59,4,0,0,23,53,10,11,0,0,0,0,0,0,0,0,0,0,0,0,0,0,0,0,0,0,0,0,0,0,0,0,0,0,0,0,0,0,0,0,0,0,0,0,0,0,0,0,0,0,0,0,0,0],"split_type":[0,0,0,0,0,0,0,0,0,0,0,0,0,0,0,0,0,0,0,0,0,0,0,0,0,0,0,0,0,0,0,0,0,0,0,0,0,0,0,0,0,0,0,0,0,0,0,0,0,0,0,0,0,0,0,0,0,0,0,0,0,0,0,0,0,0,0,0,0,0,0,0,0,0,0,0,0,0,0,0,0,0,0,0,0,0,0,0,0,0,0,0,0,0,0,0,0,0,0,0,0,0,0,0,0],"sum_hessian":[8.88E2,4.87E2,4.01E2,1.1E2,3.77E2,2.66E2,1.35E2,2.9E1,8.1E1,1.56E2,2.21E2,1.88E2,7.8E1,1.13E2,2.2E1,9E0,2E1,7E1,1.1E1,1.5E1,1.41E2,2.7E1,1.94E2,1.13E2,7.5E1,7.4E1,4E0,1.07E2,6E0,3E0,1.9E1,6E0,3E0,1.4E1,6E0,6.8E1,2E0,4E0,7E0,1.2E1,3E0,9.3E1,4.8E1,1.7E1,1E1,1.65E2,2.9E1,1.03E2,1E1,6E0,6.9E1,7E1,4E0,1E0,3E0,8.6E1,2.1E1,1.3E1,6E0,1E0,5E0,7E0,7E0,2.6E1,4.2E1,1E0,1E0,3E0,1E0,2E0,5E0,2E0,1E0,6.8E1,2.5E1,3.5E1,1.3E1,9E0,8E0,9E0,1E0,6.5E1,1E2,5E0,2.4E1,6.9E1,3.4E1,3E0,7E0,3E0,3E0,6.6E1,3E0,2.5E1,4.5E1,1E0,3E0,8.5E1,1E0,1.8E1,3E0,3E0,1E1,5E0,1E0],"tree_param":{"num_deleted":"0","num_feature":"65","num_nodes":"105","size_leaf_vector":"1"}},{"base_weights":[5.8196425E-2,-2.1827571E0,1.3392167E0,-3.1113167E0,-8.718651E-1,4.758522E-1,2.3395305E0,-3.995818E0,-2.294348E0,-1.6232686E0,-6.898563E-1,-6.805287E-2,8.199024E-1,1.9263343E0,4.2249722E0,-8.947791E-1,-4.2559743E0,-1.0763268E0,-2.536694E0,-2.5341815E-1,-8.470479E-1,-8.2631826E-1,8.922353E-2,-2.3540852E0,1.0035365E-1,8.8795924E-1,-2.4306166E-1,2.0435665E0,-3.3123438E0,2.1098642E0,5.112122E0,-1.7464529E-1,-3.198123E-1,-2.791732E0,-4.763243E0,-1.7596969E-1,-2.1523237E-3,-2.7679834E0,-8.132182E-1,-1.3610598E0,-2.2715509E-1,-9.6128154E-1,1.5354395E-1,-4.333968E-2,2.321705E-1,6.568716E-2,-4.2920336E-1,-1.6661805E0,2.3792149E-1,1.3809791E0,5.510575E-1,1.8172902E0,3.8637394E-1,-5.165124E-2,-3.8821736E-1,8.378888E-3,2.6094007E-1,3.975708E0,6.208074E-1,-5.0851177E-2,3.8391114E-3,-4.7060084E-1,-1.6601108E-1,-1.2757342E-1,-4.9302754E-1,2.0538824E-2,-4.16516E-2,-2.187506E-1,-3.4070808E-1,-1.6685621E-1,-8.608423E-3,-1.4727926E-1,-2.8946495E-2,-4.479366E-2,1.0561061E-2,-1.1773999E-1,-1.9408477E-2,-2.9825592E-2,2.2173084E-2,4.226637E-3,2.4352727E-2,-2.518737E-1,5.9432574E-2,3.1392217E-2,-2.3747419E-1,1.5399745E-1,-1.05755426E-1,-7.0098184E-2,1.1357917E-1,9.107898E-2,2.2631954E-1,4.124434E-1,7.23681E-2],"categories":[],"categories_nodes":[],"categories_segments":[],"categories_sizes":[],"default_left":[0,0,0,0,0,0,0,0,0,0,0,0,0,0,0,0,0,0,0,0,0,0,0,0,0,0,0,0,0,0,0,0,0,0,0,0,0,0,0,0,0,0,0,0,0,0,0,0,0,0,0,0,0,0,0,0,0,0,0,0,0,0,0,0,0,0,0,0,0,0,0,0,0,0,0,0,0,0,0,0,0,0,0,0,0,0,0,0,0,0,0,0,0],"id":4,"left_children":[1,3,5,7,9,11,13,15,17,19,21,23,25,27,29,31,33,35,37,-1,39,41,43,45,47,49,-1,51,53,55,57,-1,59,61,63,-1,65,67,69,71,73,75,77,-1,79,-1,-1,81,83,85,87,89,-1,-1,-1,-1,-1,91,-1,-1,-1,-1,-1,-1,-1,-1,-1,-1,-1,-1,-1,-1,-1,-1,-1,-1,-1,-1,-1,-1,-1,-1,-1,-1,-1,-1,-1,-1,-1,-1,-1,-1,-1],"loss_changes":[2.4860845E3,3.8071838E2,4.7474994E2,1.2379236E2,1.693277E1,5.563359E1,1.9052087E2,6.637952E1,2.6197632E1,1.5530159E1,1.1555721E1,4.489424E1,4.242034E1,1.3635284E2,7.3652954E1,3.3589373E0,4.6123535E1,1.3209269E1,3.0037292E1,0E0,4.470311E0,1.2314178E1,1.370641E0,4.949995E1,2.6885412E1,2.8970764E1,0E0,7.8233826E1,5.9605484E0,1.4962845E1,1.3927551E1,0E0,4.2507905E-1,4.201094E1,2.7496948E1,0E0,7.735256E-1,1.8886719E1,6.697808E0,5.3153706E-1,6.35055E-1,1.3201706E1,4.358144E-1,0E0,1.990074E-2,0E0,0E0,1.6914623E1,2.0999033E1,2.9544128E1,7.986406E1,7.3122375E1,0E0,0E0,0E0,0E0,0E0,5.7211304E0,0E0,0E0,0E0,0E0,0E0,0E0,0E0,0E0,0E0,0E0,0E0,0E0,0E0,0E0,0E0,0E0,0E0,0E0,0E0,0E0,0E0,0E0,0E0,0E0,0E0,0E0,0E0,0E0,0E0,0E0,0E0,0E0,0E0,0E0,0E0],"parents":[2147483647,0,0,1,1,2,2,3,3,4,4,5,5,6,6,7,7,8,8,9,9,10,10,11,11,12,12,13,13,14,14,15,15,16,16,17,17,18,18,20,20,21,21,22,22,23,23,24,24,25,25,27,27,28,28,29,29,30,30,32,32,33,33,34,34,36,36,37,37,38,38,39,39,40,40,41,41,42,42,44,44,47,47,48,48,49,49,50,50,51,51,57,57],"right_children":[2,4,6,8,10,12,14,16,18,20,22,24,26,28,30,32,34,36,38,-1,40,42,44,46,48,50,-1,52,54,56,58,-1,60,62,64,-1,66,68,70,72,74,76,78,-1,80,-1,-1,82,84,86,88,90,-1,-1,-1,-1,-1,92,-1,-1,-1,-1,-1,-1,-1,-1,-1,-1,-1,-1,-1,-1,-1,-1,-1,-1,-1,-1,-1,-1,-1,-1,-1,-1,-1,-1,-1,-1,-1,-1,-1,-1,-1],"split_conditions":[1.1E1,7E0,1.4E1,3E0,1.3757E4,1.2E1,4.570558E0,1.6E3,2.446E3,1.67332E0,2E0,8.916E3,2.4E1,7.8E1,1.6E1,1.345E3,1E1,9E0,3.5E0,-2.5341815E-1,1.575E3,6E0,4.6530924E0,4E0,2E0,1.5569E4,-2.4306166E-1,1.4333333E1,5E0,3.1666667E0,1.8E1,-1.7464529E-1,4E0,3.9E0,1.685E0,-1.7596969E-1,5E0,2.3392782E0,9E0,4.5E1,1.0204E4,9E0,2.6645117E0,-4.333968E-2,6E0,6.568716E-2,-4.2920336E-1,4E0,8.7E1,6E1,1.8662E4,3.2E0,3.8637394E-1,-5.165124E-2,-3.8821736E-1,8.378888E-3,2.6094007E-1,7E0,6.208074E-1,-5.0851177E-2,3.8391114E-3,-4.7060084E-1,-1.6601108E-1,-1.2757342E-1,-4.9302754E-1,2.0538824E-2,-4.16516E-2,-2.187506E-1,-3.4070808E-1,-1.6685621E-1,-8.608423E-3,-1.4727926E-1,-2.8946495E-2,-4.479366E-2,1.0561061E-2,-1.1773999E-1,-1.9408477E-2,-2.9825592E-2,2.2173084E-2,4.226637E-3,2.4352727E-2,-2.518737E-1,5.9432574E-2,3.1392217E-2,-2.3747419E-1,1.5399745E-1,-1.05755426E-1,-7.0098184E-2,1.1357917E-1,9.107898E-2,2.2631954E-1,4.124434E-1,7.23681E-2],"split_indices":[12,10,12,11,59,12,29,56,56,48,13,59,37,2,12,9,28,12,29,0,9,0,15,0,45,58,0,10,0,45,12,0,0,41,15,0,0,48,12,2,59,11,15,0,2,0,0,37,2,6,58,29,0,0,0,0,0,45,0,0,0,0,0,0,0,0,0,0,0,0,0,0,0,0,0,0,0,0,0,0,0,0,0,0,0,0,0,0,0,0,0,0,0],"split_type":[0,0,0,0,0,0,0,0,0,0,0,0,0,0,0,0,0,0,0,0,0,0,0,0,0,0,0,0,0,0,0,0,0,0,0,0,0,0,0,0,0,0,0,0,0,0,0,0,0,0,0,0,0,0,0,0,0,0,0,0,0,0,0,0,0,0,0,0,0,0,0,0,0,0,0,0,0,0,0,0,0,0,0,0,0,0,0,0,0,0,0,0,0],"sum_hessian":[8.64E2,3.14E2,5.5E2,1.83E2,1.31E2,2.96E2,2.54E2,8.6E1,9.7E1,2.4E1,1.07E2,1.15E2,1.81E2,2.1E2,4.4E1,7E0,7.9E1,1.7E1,8E1,1E1,1.4E1,9.1E1,1.6E1,7E0,1.08E2,1.78E2,3E0,2.06E2,4E0,1.4E1,3E1,2E0,5E0,2.2E1,5.7E1,1E1,7E0,7E1,1E1,7E0,7E0,8E1,1.1E1,3E0,1.3E1,3E0,4E0,7E0,1.01E2,7.1E1,1.07E2,1.85E2,2.1E1,1E0,3E0,3E0,1.1E1,1.7E1,1.3E1,3E0,2E0,7E0,1.5E1,3E0,5.4E1,5E0,2E0,3.9E1,3.1E1,4E0,6E0,6E0,1E0,4E0,3E0,6.2E1,1.8E1,1E0,1E1,1E0,1.2E1,5E0,2E0,9.9E1,2E0,6.7E1,4E0,3.4E1,7.3E1,6.2E1,1.23E2,1.6E1,1E0],"tree_param":{"num_deleted":"0","num_feature":"65","num_nodes":"93","size_leaf_vector":"1"}},{"base_weights":[-2.8211053E-2,-1.9550452E0,1.0685478E0,-2.9278526E0,-8.0058396E-1,6.018002E-1,2.4876943E0,-3.6938229E0,-2.1375916E0,-1.1195372E0,-4.918125E-1,3.138837E-1,1.9865612E0,1.9269116E0,3.904949E0,-1.1630865E0,-4.003365E0,-2.2791414E0,2.0036936E-1,-8.30651E-1,-2.0223007E0,-1.5780067E-1,-3.957991E-1,4.0209046E-1,-3.1512551E0,2.2728107E0,-3.5910106E-1,2.5460093E0,9.2861706E-1,1.5127172E-1,4.212256E0,-2.6644114E-1,-5.334132E-1,-4.2984533E0,-2.0221756E0,-2.924227E0,-1.758688E0,6.8467716E-3,4.299388E-2,-1.3541186E0,-3.1439286E-1,-2.126676E0,-1.761489E-2,-8.669112E-1,-2.6931638E-1,1.0496897E-1,1.3875313E0,-4.051251E0,2.0243564E-1,9.786988E-1,2.9548564E0,2.8616946E0,3.339314E-1,1.4497056E0,-1.4020864E0,3.6384642E0,5.905673E-1,-6.0680818E-2,2.687359E-3,-4.415482E-1,-1.3513747E-1,-3.2408204E-2,-3.188802E-1,-1.4541571E-1,-3.4337094E-1,-5.7581913E-2,-2.010438E-1,-1.8152109E-1,-5.880614E-2,-4.665394E-2,1.6232764E-2,-2.2288032E-1,-2.9738521E-2,-1.2034364E-1,-4.2202212E-2,-3.4905318E-3,-5.458441E-2,-3.727801E-2,5.1939256E-2,-1.9518273E-2,2.0573616E-1,-2.0274805E-1,-4.8600173E-1,1.5457074E-1,-1.16894834E-1,1.5667729E-1,3.5759687E-1,2.276217E-1,3.70122E-1,-1.2222107E-1,1.3157043E-1,2.3108469E-1,2.0487024E-2,-1.5634193E-1,-6.1205864E-2,3.695086E-1,1.0548377E-1],"categories":[],"categories_nodes":[],"categories_segments":[],"categories_sizes":[],"default_left":[0,0,0,0,0,0,0,0,0,0,0,0,0,0,0,0,0,0,0,0,0,0,0,0,0,0,0,0,0,0,0,0,0,0,0,0,0,0,0,0,0,0,0,0,0,0,0,0,0,0,0,0,0,0,0,0,0,0,0,0,0,0,0,0,0,0,0,0,0,0,0,0,0,0,0,0,0,0,0,0,0,0,0,0,0,0,0,0,0,0,0,0,0,0,0,0,0],"id":5,"left_children":[1,3,5,7,9,11,13,15,17,19,21,23,25,27,29,31,33,35,37,39,41,-1,43,45,47,49,-1,51,53,-1,55,-1,57,59,61,63,65,-1,-1,67,69,71,-1,73,75,77,79,81,-1,83,85,87,89,91,93,95,-1,-1,-1,-1,-1,-1,-1,-1,-1,-1,-1,-1,-1,-1,-1,-1,-1,-1,-1,-1,-1,-1,-1,-1,-1,-1,-1,-1,-1,-1,-1,-1,-1,-1,-1,-1,-1,-1,-1,-1,-1],"loss_changes":[1.8934678E3,3.6265344E2,3.7672363E2,9.863977E1,1.4221947E1,1.7121423E2,1.0453833E2,6.428027E1,2.9910095E1,1.7358284E1,7.509985E0,1.10689316E2,1.2630844E2,6.1294037E1,2.229889E1,8.977554E0,3.6908447E1,2.3059113E1,1.522466E-1,1.4978203E1,2.9011612E0,0E0,4.116417E0,1.0233284E2,5.012345E1,5.9775787E1,0E0,4.3038574E1,5.1827232E1,0E0,1.1549133E1,0E0,3.864076E-1,1.714087E1,2.2739052E1,2.196994E1,1.3433929E1,0E0,0E0,8.822796E0,2.251674E0,2.3263016E0,0E0,1.7378683E0,3.8053956E0,5.3651054E1,8.627367E1,3.2404785E0,0E0,3.3467953E1,3.4056427E1,1.860904E1,1.5358068E1,3.597387E1,6.275463E-2,1.9839478E-1,0E0,0E0,0E0,0E0,0E0,0E0,0E0,0E0,0E0,0E0,0E0,0E0,0E0,0E0,0E0,0E0,0E0,0E0,0E0,0E0,0E0,0E0,0E0,0E0,0E0,0E0,0E0,0E0,0E0,0E0,0E0,0E0,0E0,0E0,0E0,0E0,0E0,0E0,0E0,0E0,0E0],"parents":[2147483647,0,0,1,1,2,2,3,3,4,4,5,5,6,6,7,7,8,8,9,9,10,10,11,11,12,12,13,13,14,14,15,15,16,16,17,17,18,18,19,19,20,20,22,22,23,23,24,24,25,25,27,27,28,28,30,30,32,32,33,33,34,34,35,35,36,36,39,39,40,40,41,41,43,43,44,44,45,45,46,46,47,47,49,49,50,50,51,51,52,52,53,53,54,54,55,55],"right_children":[2,4,6,8,10,12,14,16,18,20,22,24,26,28,30,32,34,36,38,40,42,-1,44,46,48,50,-1,52,54,-1,56,-1,58,60,62,64,66,-1,-1,68,70,72,-1,74,76,78,80,82,-1,84,86,88,90,92,94,96,-1,-1,-1,-1,-1,-1,-1,-1,-1,-1,-1,-1,-1,-1,-1,-1,-1,-1,-1,-1,-1,-1,-1,-1,-1,-1,-1,-1,-1,-1,-1,-1,-1,-1,-1,-1,-1,-1,-1,-1,-1],"split_conditions":[1.1E1,7E0,1.2E1,3E0,1.2471E2,4.109609E0,1.4333333E1,1.0312E2,2.8674417E0,1.1624E2,1.1111E2,4.027682E0,1.5202E2,1.7032E4,7.78E0,4E0,1.3398E2,6E0,9.6E1,8E0,9.7E1,-1.5780067E-1,6.16E0,1.025E1,5.7E1,2.487E3,-3.5910106E-1,1.818E3,2.722E3,1.5127172E-1,4.630335E0,-2.6644114E-1,6E0,1.3680667E2,1.4253334E2,9.87E2,4E0,6.8467716E-3,4.299388E-2,1.7028E4,9.44E0,5.9E1,-1.761489E-2,5E0,8.75E0,1.584E3,1.661905E1,5E0,2.0243564E-1,1.19924446E2,3E0,2.4944382E0,1.1E1,1.6551495E1,1.3E1,8E0,5.905673E-1,-6.0680818E-2,2.687359E-3,-4.415482E-1,-1.3513747E-1,-3.2408204E-2,-3.188802E-1,-1.4541571E-1,-3.4337094E-1,-5.7581913E-2,-2.010438E-1,-1.8152109E-1,-5.880614E-2,-4.665394E-2,1.6232764E-2,-2.2288032E-1,-2.9738521E-2,-1.2034364E-1,-4.2202212E-2,-3.4905318E-3,-5.458441E-2,-3.727801E-2,5.1939256E-2,-1.9518273E-2,2.0573616E-1,-2.0274805E-1,-4.8600173E-1,1.5457074E-1,-1.16894834E-1,1.5667729E-1,3.5759687E-1,2.276217E-1,3.70122E-1,-1.2222107E-1,1.3157043E-1,2.3108469E-1,2.0487024E-2,-1.5634193E-1,-6.1205864E-2,3.695086E-1,1.0548377E-1],"split_indices":[12,10,10,11,14,13,10,36,13,14,36,13,30,58,41,10,8,10,3,26,3,0,7,18,1,56,0,9,56,0,21,0,0,14,14,9,43,0,0,58,41,1,0,0,18,9,31,0,0,30,11,13,11,31,7,43,0,0,0,0,0,0,0,0,0,0,0,0,0,0,0,0,0,0,0,0,0,0,0,0,0,0,0,0,0,0,0,0,0,0,0,0,0,0,0,0,0],"split_type":[0,0,0,0,0,0,0,0,0,0,0,0,0,0,0,0,0,0,0,0,0,0,0,0,0,0,0,0,0,0,0,0,0,0,0,0,0,0,0,0,0,0,0,0,0,0,0,0,0,0,0,0,0,0,0,0,0,0,0,0,0,0,0,0,0,0,0,0,0,0,0,0,0,0,0,0,0,0,0,0,0,0,0,0,0,0,0,0,0,0,0,0,0,0,0,0,0],"sum_hessian":[8.94E2,3.24E2,5.7E2,1.75E2,1.49E2,4.3E2,1.4E2,8.7E1,8.8E1,7.2E1,7.7E1,3.57E2,7.3E1,1.02E2,3.8E1,1E1,7.7E1,8.3E1,5E0,5.6E1,1.6E1,5E0,7.2E1,3.49E2,8E0,7E1,3E0,6.2E1,4E1,5E0,3.3E1,2E0,8E0,6.6E1,1.1E1,3.5E1,4.8E1,4E0,1E0,2.7E1,2.9E1,1.5E1,1E0,1.4E1,5.8E1,2.69E2,8E1,7E0,1E0,2.5E1,4.5E1,5.4E1,8E0,3.3E1,7E0,2.7E1,6E0,7E0,1E0,6.3E1,3E0,5E0,6E0,1E1,2.5E1,9E0,3.9E1,1.6E1,1.1E1,2.2E1,7E0,1.4E1,1E0,7E0,7E0,3.2E1,2.6E1,1.25E2,1.44E2,2.4E1,5.6E1,3E0,4E0,2E1,5E0,1.5E1,3E1,3.4E1,2E1,3E0,5E0,1.9E1,1.4E1,5E0,2E0,2.6E1,1E0],"tree_param":{"num_deleted":"0","num_feature":"65","num_nodes":"97","size_leaf_vector":"1"}},{"base_weights":[4.250633E-2,-1.042726E0,1.3212286E0,-2.5901394E0,-5.94723E-1,1.0856826E0,3.4022236E0,-2.7384348E0,9.234545E-2,-1.1785367E0,-1.1779144E-1,1.1639798E0,-2.0885382E0,3.6281693E0,1.517169E-1,-1.2820886E0,-3.0602455E0,-9.0968245E-1,-4.2314062E-1,-1.4376248E0,1.1176228E-1,9.455566E-1,3.1090133E0,-1.5865478E-1,-3.6007142E-1,2.5881755E-1,4.198252E0,-6.1462104E-1,-3.1615672E-1,-2.545286E0,-4.270564E0,-1.1089809E0,-2.826036E-1,-2.305617E0,2.7123624E-1,2.0425068E-1,-2.4965401E-1,1.0383902E-1,1.3329663E0,3.4888837E0,-7.072046E-2,-7.772334E-2,1.15782976E-1,4.2921898E-1,1.1597528E-1,-2.663068E-2,-1.02440976E-1,-2.69107E-1,-4.0344685E-2,-4.391124E-1,-8.091235E-2,-9.991319E-2,-2.162482E-1,-1.7719274E-2,-9.428766E-2,-3.5811663E-1,-9.364255E-2,7.872076E-2,-1.3670899E-1,3.5738148E-2,-1.3815086E-1,-4.4947825E-2,1.9998488E-1,1.4402863E-1,-1.03258446E-1,3.7618575E-1,6.376033E-2],"categories":[],"categories_nodes":[],"categories_segments":[],"categories_sizes":[],"default_left":[0,0,0,0,0,0,0,0,0,0,0,0,0,0,0,0,0,0,0,0,0,0,0,0,0,0,0,0,0,0,0,0,0,0,0,0,0,0,0,0,0,0,0,0,0,0,0,0,0,0,0,0,0,0,0,0,0,0,0,0,0,0,0,0,0,0,0],"id":6,"left_children":[1,3,5,7,9,11,13,15,-1,17,19,21,23,25,-1,27,29,31,-1,33,35,37,39,41,-1,-1,43,45,-1,47,49,51,53,55,57,59,-1,61,63,65,-1,-1,-1,-1,-1,-1,-1,-1,-1,-1,-1,-1,-1,-1,-1,-1,-1,-1,-1,-1,-1,-1,-1,-1,-1,-1,-1],"loss_changes":[1.2031353E3,3.2359195E2,1.9139392E2,5.7239075E1,1.0149147E2,9.1654205E1,1.1532288E1,4.3411926E1,0E0,1.307582E2,6.136114E1,1.461792E2,2.5693634E1,9.885071E0,0E0,2.3146652E1,4.0237854E1,1.8682938E1,0E0,4.5123714E1,4.224405E1,1.03231995E2,5.320575E1,4.9716496E0,0E0,0E0,1.0161438E0,2.0109568E0,0E0,1.7649078E1,6.0451965E0,1.1147873E1,2.4777272E0,3.157592E1,1.0374806E1,4.1288918E1,0E0,1.06857475E2,5.657715E1,2.2507812E1,0E0,0E0,0E0,0E0,0E0,0E0,0E0,0E0,0E0,0E0,0E0,0E0,0E0,0E0,0E0,0E0,0E0,0E0,0E0,0E0,0E0,0E0,0E0,0E0,0E0,0E0,0E0],"parents":[2147483647,0,0,1,1,2,2,3,3,4,4,5,5,6,6,7,7,9,9,10,10,11,11,12,12,13,13,15,15,16,16,17,17,19,19,20,20,21,21,22,22,23,23,26,26,27,27,29,29,30,30,31,31,32,32,33,33,34,34,35,35,37,37,38,38,39,39],"right_children":[2,4,6,8,10,12,14,16,-1,18,20,22,24,26,-1,28,30,32,-1,34,36,38,40,42,-1,-1,44,46,-1,48,50,52,54,56,58,60,-1,62,64,66,-1,-1,-1,-1,-1,-1,-1,-1,-1,-1,-1,-1,-1,-1,-1,-1,-1,-1,-1,-1,-1,-1,-1,-1,-1,-1,-1],"split_conditions":[1.3E1,6E0,1.4333333E1,4.5460606E0,1.1E1,1.5202E2,1.3E1,1.0537E2,9.234545E-2,2.9439204E0,9.918E3,4.714045E0,6E0,1.6E1,1.517169E-1,1.752E3,3.3481154E0,8.666667E0,-4.2314062E-1,3.3333334E-1,4.4444445E-1,1E1,6.2E1,3.7E1,-3.6007142E-1,2.5881755E-1,7E0,2.389E3,-3.1615672E-1,1.3E1,8E0,1.4027E2,1.01E1,6.1E0,6.5E0,2.3333333E0,-2.4965401E-1,3.681787E0,3.7416575E0,3.3333334E-1,-7.072046E-2,-7.772334E-2,1.15782976E-1,4.2921898E-1,1.1597528E-1,-2.663068E-2,-1.02440976E-1,-2.69107E-1,-4.0344685E-2,-4.391124E-1,-8.091235E-2,-9.991319E-2,-2.162482E-1,-1.7719274E-2,-9.428766E-2,-3.5811663E-1,-9.364255E-2,7.872076E-2,-1.3670899E-1,3.5738148E-2,-1.3815086E-1,-4.4947825E-2,1.9998488E-1,1.4402863E-1,-1.03258446E-1,3.7618575E-1,6.376033E-2],"split_indices":[20,10,10,13,20,30,6,36,0,13,58,13,0,20,0,9,29,10,0,33,33,10,2,2,0,0,0,56,0,37,0,36,38,41,10,34,0,13,13,24,0,0,0,0,0,0,0,0,0,0,0,0,0,0,0,0,0,0,0,0,0,0,0,0,0,0,0],"split_type":[0,0,0,0,0,0,0,0,0,0,0,0,0,0,0,0,0,0,0,0,0,0,0,0,0,0,0,0,0,0,0,0,0,0,0,0,0,0,0,0,0,0,0,0,0,0,0,0,0,0,0,0,0,0,0,0,0,0,0,0,0,0,0,0,0,0,0],"sum_hessian":[8.65E2,4.68E2,3.97E2,1.04E2,3.64E2,3.58E2,3.9E1,1E2,4E0,1.63E2,2.01E2,3.5E2,8E0,3.4E1,5E0,1.9E1,8.1E1,1.51E2,1.2E1,2.9E1,1.72E2,3.16E2,3.4E1,4E0,4E0,1.4E1,2E1,1.5E1,4E0,5.9E1,2.2E1,1.14E2,3.7E1,1.9E1,1E1,1.67E2,5E0,1E2,2.16E2,3.1E1,3E0,3E0,1E0,1.9E1,1E0,9E0,6E0,5.5E1,4E0,2.1E1,1E0,1.05E2,9E0,3.3E1,4E0,9E0,1E1,8E0,2E0,1.53E2,1.4E1,7.8E1,2.2E1,2.07E2,9E0,2.8E1,3E0],"tree_param":{"num_deleted":"0","num_feature":"65","num_nodes":"67","size_leaf_vector":"1"}},{"base_weights":[-1.5112969E-2,-1.9631034E0,6.196153E-1,-2.2023344E0,8.040796E-1,1.21575184E-1,1.7004949E0,-3.0147088E0,-1.4823977E0,1.1454916E0,-2.4999622E-1,-2.3448026E-1,9.636949E-1,1.3505907E0,3.2487302E0,-2.0782626E0,-3.519131E0,-1.8465184E0,-5.645047E-2,1.21598355E-1,4.1120183E-2,-6.8992275E-1,1.9236712E-1,5.760757E-1,1.5984312E0,1.4637793E0,-2.7453055E0,9.0902984E-1,3.747726E0,-4.5316723E-1,-3.1400802E0,-2.4963229E0,-4.1491613E0,-8.4874856E-1,-2.1762402E0,-1.7252535E0,7.814792E-1,-4.4373322E-1,-1.1737685E0,-1.5772064E0,3.2725504E-1,1.2865535E0,-4.084315E-2,1.8740473E0,4.2582312E-1,7.817295E-1,1.8932314E0,-5.4406215E-2,-3.1596008E-1,-1.783778E-2,1.3012287E-1,1.9290032E0,4.2964554E0,-1.2914504E-1,1.0194992E-1,-2.1007319E-1,-3.893967E-1,-3.0627212E-1,-6.023391E-2,-1.5406539E-1,-4.4360447E-1,-1.1648184E-1,5.220669E-2,-2.3763917E-1,-2.0695059E-2,4.7762237E-2,-2.5391492E-1,9.737206E-3,9.318599E-2,-2.8168121E-2,-1.21133566E-1,-1.4536735E-1,-3.101929E-2,7.526679E-2,-3.3489263E-1,-7.2163396E-2,6.830525E-2,9.363537E-2,2.3887578E-1,8.0145195E-2,-7.5198345E-2,1.2971336E-1,2.1569924E-1,-3.0593444E-2,7.3847406E-2,1.5983489E-1,-1.530087E-1,2.5055346E-1,4.5638543E-2,8.59782E-2,2.6124236E-1,2.9981E-1,4.7890386E-1],"categories":[],"categories_nodes":[],"categories_segments":[],"categories_sizes":[],"default_left":[0,0,0,0,0,0,0,0,0,0,0,0,0,0,0,0,0,0,0,0,0,0,0,0,0,0,0,0,0,0,0,0,0,0,0,0,0,0,0,0,0,0,0,0,0,0,0,0,0,0,0,0,0,0,0,0,0,0,0,0,0,0,0,0,0,0,0,0,0,0,0,0,0,0,0,0,0,0,0,0,0,0,0,0,0,0,0,0,0,0,0,0,0],"id":7,"left_children":[1,3,5,7,9,11,13,15,17,19,-1,21,23,25,27,29,31,33,35,-1,-1,37,39,41,43,45,47,49,51,53,55,57,59,61,63,65,67,69,71,73,75,77,79,81,83,85,87,-1,-1,-1,-1,89,91,-1,-1,-1,-1,-1,-1,-1,-1,-1,-1,-1,-1,-1,-1,-1,-1,-1,-1,-1,-1,-1,-1,-1,-1,-1,-1,-1,-1,-1,-1,-1,-1,-1,-1,-1,-1,-1,-1,-1,-1],"loss_changes":[1.0917605E3,1.4542395E2,3.583153E2,1.12502686E2,2.3168394E1,1.3725343E2,1.09376465E2,3.661615E1,5.5971222E1,3.799305E-1,0E0,6.273095E1,3.2540085E1,8.42229E1,4.095822E1,5.8971466E1,2.7661987E1,2.644574E1,3.351006E1,0E0,0E0,1.8061539E1,4.037806E1,3.7746956E1,1.5684647E1,4.8021393E1,2.840805E0,3.643951E0,2.264972E1,1.9834305E1,8.274384E0,2.4973938E1,1.93573E1,1.0573406E1,2.4734222E1,1.5556042E1,1.5552874E0,1.27199E1,1.2118469E1,5.2055244E1,5.871087E1,1.3202942E1,2.8755207E1,3.8947296E0,2.7425559E0,1.2893318E2,8.947443E1,0E0,0E0,0E0,0E0,4.330433E0,3.5159302E-1,0E0,0E0,0E0,0E0,0E0,0E0,0E0,0E0,0E0,0E0,0E0,0E0,0E0,0E0,0E0,0E0,0E0,0E0,0E0,0E0,0E0,0E0,0E0,0E0,0E0,0E0,0E0,0E0,0E0,0E0,0E0,0E0,0E0,0E0,0E0,0E0,0E0,0E0,0E0,0E0],"parents":[2147483647,0,0,1,1,2,2,3,3,4,4,5,5,6,6,7,7,8,8,9,9,11,11,12,12,13,13,14,14,15,15,16,16,17,17,18,18,21,21,22,22,23,23,24,24,25,25,26,26,27,27,28,28,29,29,30,30,31,31,32,32,33,33,34,34,35,35,36,36,37,37,38,38,39,39,40,40,41,41,42,42,43,43,44,44,45,45,46,46,51,51,52,52],"right_children":[2,4,6,8,10,12,14,16,18,20,-1,22,24,26,28,30,32,34,36,-1,-1,38,40,42,44,46,48,50,52,54,56,58,60,62,64,66,68,70,72,74,76,78,80,82,84,86,88,-1,-1,-1,-1,90,92,-1,-1,-1,-1,-1,-1,-1,-1,-1,-1,-1,-1,-1,-1,-1,-1,-1,-1,-1,-1,-1,-1,-1,-1,-1,-1,-1,-1,-1,-1,-1,-1,-1,-1,-1,-1,-1,-1,-1,-1],"split_conditions":[7E0,3.8586123E0,1.5E1,3E0,1.824E3,1.0333333E1,4.753946E0,1.366E3,2.8674417E0,1.821E3,-2.4999622E-1,2E0,3.238827E0,7.8E1,1.6E1,2.6E1,6.666667E-1,1.3278E4,1.2239E4,1.21598355E-1,4.1120183E-2,2.2331E4,9.897E3,1.6E0,2.4647654E1,1.6128847E1,5E0,2.4E1,1.5E0,5.25E0,6.1E0,1.2283E4,1.0563E2,6.3333335E0,2.591E4,2E1,1.1776E2,3.1313825E0,9E0,9.88E3,1.0559E2,1.4E1,1.0402E2,1.4E1,9E0,1.2182409E1,2.3436033E1,-5.4406215E-2,-3.1596008E-1,-1.783778E-2,1.3012287E-1,2.4E1,1.7E1,-1.2914504E-1,1.0194992E-1,-2.1007319E-1,-3.893967E-1,-3.0627212E-1,-6.023391E-2,-1.5406539E-1,-4.4360447E-1,-1.1648184E-1,5.220669E-2,-2.3763917E-1,-2.0695059E-2,4.7762237E-2,-2.5391492E-1,9.737206E-3,9.318599E-2,-2.8168121E-2,-1.21133566E-1,-1.4536735E-1,-3.101929E-2,7.526679E-2,-3.3489263E-1,-7.2163396E-2,6.830525E-2,9.363537E-2,2.3887578E-1,8.0145195E-2,-7.5198345E-2,1.2971336E-1,2.1569924E-1,-3.0593444E-2,7.3847406E-2,1.5983489E-1,-1.530087E-1,2.5055346E-1,4.5638543E-2,8.59782E-2,2.6124236E-1,2.9981E-1,4.7890386E-1],"split_indices":[10,13,20,11,9,10,29,9,13,9,0,13,29,2,20,40,34,59,59,0,0,58,58,21,23,23,4,2,13,18,26,58,30,10,59,2,8,48,11,58,36,20,39,20,40,23,15,0,0,0,0,2,20,0,0,0,0,0,0,0,0,0,0,0,0,0,0,0,0,0,0,0,0,0,0,0,0,0,0,0,0,0,0,0,0,0,0,0,0,0,0,0,0],"split_type":[0,0,0,0,0,0,0,0,0,0,0,0,0,0,0,0,0,0,0,0,0,0,0,0,0,0,0,0,0,0,0,0,0,0,0,0,0,0,0,0,0,0,0,0,0,0,0,0,0,0,0,0,0,0,0,0,0,0,0,0,0,0,0,0,0,0,0,0,0,0,0,0,0,0,0,0,0,0,0,0,0,0,0,0,0,0,0,0,0,0,0,0,0],"sum_hessian":[8.81E2,2.16E2,6.65E2,1.99E2,1.7E1,4.56E2,2.09E2,9.2E1,1.07E2,1.6E1,1E0,3.21E2,1.35E2,1.72E2,3.7E1,3.4E1,5.8E1,8.5E1,2.2E1,1.4E1,2E0,1.55E2,1.66E2,8.5E1,5E1,1.68E2,4E0,7E0,3E1,1.4E1,2E1,2.4E1,3.4E1,2.2E1,6.3E1,7E0,1.5E1,1.04E2,5.1E1,1.1E1,1.55E2,3.9E1,4.6E1,4E1,1E1,6.6E1,1.02E2,1E0,3E0,2E0,5E0,8E0,2.2E1,9E0,5E0,1E1,1E1,1.8E1,6E0,4E0,3E1,1.8E1,4E0,5.7E1,6E0,2E0,5E0,3E0,1.2E1,8.7E1,1.7E1,3.8E1,1.3E1,5E0,6E0,3.9E1,1.16E2,3.1E1,8E0,2.1E1,2.5E1,1.5E1,2.5E1,3E0,7E0,4.9E1,1.7E1,7.1E1,3.1E1,4E0,4E0,8E0,1.4E1],"tree_param":{"num_deleted":"0","num_feature":"65","num_nodes":"93","size_leaf_vector":"1"}},{"base_weights":[-4.5802962E-2,-1.1472203E0,1.1260258E0,-2.1935759E0,-7.6441085E-1,9.0090466E-1,2.9514554E0,-2.503032E0,1.394859E-1,-1.7107488E0,-4.8048082E-1,9.627017E-1,-1.7397394E0,3.381551E0,-1.2516401E0,-2.7545226E0,-9.162395E-1,-2.374964E-1,4.8872975E-1,-7.9528004E-1,-1.8534392E0,-2.7877852E-1,-4.2341188E-1,8.168982E-1,2.0819073E0,-2.581987E-1,8.05418E-1,4.7144815E-1,2.6214623E0,2.4412365E-1,-2.7851686E-1,-3.0715241E0,-1.2982653E0,-2.6687223E-1,4.0212235E-1,6.41168E-2,8.6107254E-2,-8.5903895E-1,-4.6966076E-3,-2.2996438E0,-1.5361574E0,-3.81831E-1,-2.3928237E-1,4.3417254E-1,1.2877954E0,3.9240265E-1,2.4085968E0,-2.4130344E-2,1.4494304E-1,8.456635E-1,3.0479462E0,-1.260906E-1,-3.3676493E-1,2.8314555E-2,-2.3303583E-1,-4.2928237E-2,1.02793925E-1,-1.0123253E-3,1.1269569E-2,-6.4135335E-2,-1.2257494E-1,-2.3783052E-1,-2.0588303E-2,-1.2067311E-1,-2.2317103E-1,-1.4407408E-2,-7.358103E-2,-1.9875568E-1,5.4178428E-2,-9.325775E-3,1.4691122E-1,-4.4772316E-2,9.860228E-2,2.5778025E-1,-2.5553003E-2,1.3373403E-1,-2.556858E-2,3.1136748E-1,8.009606E-2],"categories":[],"categories_nodes":[],"categories_segments":[],"categories_sizes":[],"default_left":[0,0,0,0,0,0,0,0,0,0,0,0,0,0,0,0,0,0,0,0,0,0,0,0,0,0,0,0,0,0,0,0,0,0,0,0,0,0,0,0,0,0,0,0,0,0,0,0,0,0,0,0,0,0,0,0,0,0,0,0,0,0,0,0,0,0,0,0,0,0,0,0,0,0,0,0,0,0,0],"id":8,"left_children":[1,3,5,7,9,11,13,15,17,19,21,23,25,27,29,31,33,-1,35,37,39,-1,41,43,45,-1,47,-1,49,-1,-1,51,53,-1,55,-1,57,59,-1,61,63,65,-1,67,69,71,73,-1,-1,75,77,-1,-1,-1,-1,-1,-1,-1,-1,-1,-1,-1,-1,-1,-1,-1,-1,-1,-1,-1,-1,-1,-1,-1,-1,-1,-1,-1,-1],"loss_changes":[1.1267582E3,1.7857281E2,1.711698E2,8.698682E1,8.811566E1,6.3358368E1,8.7388214E1,3.9776917E1,1.4333058E1,8.453766E0,3.2528526E1,5.86774E1,2.1372452E1,3.0193268E1,3.5114906E1,3.802124E1,3.8039654E1,0E0,8.0404186E-1,5.321946E-1,5.6696014E0,0E0,1.9640697E1,5.8734756E1,2.223648E1,0E0,2.3720574E0,0E0,1.9385605E1,0E0,0E0,3.5430298E1,3.0038765E1,0E0,5.644347E0,0E0,1.3933945E-2,9.196472E-2,0E0,3.6278076E0,6.7014008E0,2.0681763E1,0E0,4.8767815E1,3.6946945E1,4.43119E0,1.6436188E1,0E0,0E0,4.132495E0,9.029541E-1,0E0,0E0,0E0,0E0,0E0,0E0,0E0,0E0,0E0,0E0,0E0,0E0,0E0,0E0,0E0,0E0,0E0,0E0,0E0,0E0,0E0,0E0,0E0,0E0,0E0,0E0,0E0,0E0],"parents":[2147483647,0,0,1,1,2,2,3,3,4,4,5,5,6,6,7,7,8,8,9,9,10,10,11,11,12,12,13,13,14,14,15,15,16,16,18,18,19,19,20,20,22,22,23,23,24,24,26,26,28,28,31,31,32,32,34,34,36,36,37,37,39,39,40,40,41,41,43,43,44,44,45,45,46,46,49,49,50,50],"right_children":[2,4,6,8,10,12,14,16,18,20,22,24,26,28,30,32,34,-1,36,38,40,-1,42,44,46,-1,48,-1,50,-1,-1,52,54,-1,56,-1,58,60,-1,62,64,66,-1,68,70,72,74,-1,-1,76,78,-1,-1,-1,-1,-1,-1,-1,-1,-1,-1,-1,-1,-1,-1,-1,-1,-1,-1,-1,-1,-1,-1,-1,-1,-1,-1,-1,-1],"split_conditions":[1.2E1,3E0,1.7E1,4.082483E0,9E0,1.52464E2,2.0245E4,7.05E0,5.6E0,1.06508E2,4.33E0,4.4E0,7.46E0,9.444445E0,2.7E1,1.34854E2,1.5508E4,-2.374964E-1,6.36E0,3.198673E0,7.6E1,-2.7877852E-1,1.38E2,1.04E1,1.5E1,-2.581987E-1,6E0,4.7144815E-1,2.5E1,2.4412365E-1,-2.7851686E-1,1.0641E2,1.1503E4,-2.6687223E-1,9E0,6.41168E-2,6E0,1E1,-4.6966076E-3,4.9E1,4.6E1,1.6E1,-2.3928237E-1,3E0,1.2245E4,5.6E1,6E0,-2.4130344E-2,1.4494304E-1,4E0,2.717E3,-1.260906E-1,-3.3676493E-1,2.8314555E-2,-2.3303583E-1,-4.2928237E-2,1.02793925E-1,-1.0123253E-3,1.1269569E-2,-6.4135335E-2,-1.2257494E-1,-2.3783052E-1,-2.0588303E-2,-1.2067311E-1,-2.2317103E-1,-1.4407408E-2,-7.358103E-2,-1.9875568E-1,5.4178428E-2,-9.325775E-3,1.4691122E-1,-4.4772316E-2,9.860228E-2,2.5778025E-1,-2.5553003E-2,1.3373403E-1,-2.556858E-2,3.1136748E-1,8.009606E-2],"split_indices":[12,11,20,13,12,30,58,7,18,22,7,21,7,26,2,30,58,0,7,53,3,0,3,18,20,0,0,0,2,0,0,36,57,0,12,0,2,4,0,6,2,6,0,44,59,1,0,0,0,0,55,0,0,0,0,0,0,0,0,0,0,0,0,0,0,0,0,0,0,0,0,0,0,0,0,0,0,0,0],"split_type":[0,0,0,0,0,0,0,0,0,0,0,0,0,0,0,0,0,0,0,0,0,0,0,0,0,0,0,0,0,0,0,0,0,0,0,0,0,0,0,0,0,0,0,0,0,0,0,0,0,0,0,0,0,0,0,0,0,0,0,0,0,0,0,0,0,0,0,0,0,0,0,0,0,0,0,0,0,0,0],"sum_hessian":[8.71E2,4.49E2,4.22E2,1.19E2,3.3E2,3.77E2,4.5E1,1.05E2,1.4E1,7.5E1,2.55E2,3.69E2,8E0,4.1E1,4E0,9E1,1.5E1,1E0,1.3E1,1.1E1,6.4E1,5E0,2.5E2,3.28E2,4.1E1,6E0,2E0,1.3E1,2.8E1,1E0,3E0,7.3E1,1.7E1,6E0,9E0,9E0,4E0,1E1,1E0,2.4E1,4E1,2.46E2,4E0,1.82E2,1.46E2,7E0,3.4E1,1E0,1E0,6E0,2.2E1,1.1E1,6.2E1,7E0,1E1,4E0,5E0,1E0,3E0,8E0,2E0,2.3E1,1E0,2.9E1,1.1E1,1.48E2,9.8E1,7E0,1.75E2,1.7E1,1.29E2,3E0,4E0,3.2E1,2E0,4E0,2E0,2.1E1,1E0],"tree_param":{"num_deleted":"0","num_feature":"65","num_nodes":"79","size_leaf_vector":"1"}},{"base_weights":[-2.9541615E-2,-1.334594E0,7.3776853E-1,-2.4979107E0,-8.84509E-1,4.0837032E-1,1.7375782E0,-9.3153024E-1,-2.6843953E0,-1.3712732E0,-5.454652E-1,2.2460838E-1,1.8306788E0,2.0186884E0,-2.0178774E-1,-3.0094886E-1,-1.9598104E-1,-2.9631531E0,-1.2974843E0,-1.0894585E0,-2.077264E0,-7.8977007E-1,-2.711409E-1,7.703378E-1,-5.1413454E-2,1.9649047E0,-2.1718554E-1,1.8365846E0,4.2930436E-1,2.9410622E-1,-1.5499333E-1,-3.8165802E-1,1.320076E-2,-1.6986086E0,-3.3756251E0,-3.4958062E-1,-2.3308627E-1,-1.4731343E0,-5.6612015E-2,-8.753842E-1,-2.66206E0,-5.712961E-1,-1.4255908E0,-1.24572955E-1,-1.7245263E-1,8.966004E-1,-1.4501002E0,-3.0063453E-1,7.714809E-1,1.4985049E0,3.0335733E-1,1.9202313E0,-1.814778E-1,-3.3117294E-2,5.773352E-1,-1.5157859E-2,-4.4337407E-2,-2.2315541E-1,-2.6079236E-2,-1.9954248E-1,-3.6429682E-1,-9.164398E-2,2.8719474E-2,-1.9455306E-2,-1.607881E-1,-1.835846E-1,1.3365536E-2,-2.43934E-2,-1.4580476E-1,-8.429718E-3,-3.000142E-1,-2.7512828E-2,-9.0244636E-2,-1.9822644E-1,-6.486656E-2,-3.1147141E-2,2.4669325E-2,9.995397E-2,-1.6091482E-1,-2.84328E-2,-1.5970077E-1,-2.0924691E-2,-3.037852E-1,2.3376623E-3,1.9605844E-1,1.9031619E-1,5.9803683E-2,1.3370667E-1,2.2135158E-1,8.683813E-2,1.1261272E-2],"categories":[],"categories_nodes":[],"categories_segments":[],"categories_sizes":[],"default_left":[0,0,0,0,0,0,0,0,0,0,0,0,0,0,0,0,0,0,0,0,0,0,0,0,0,0,0,0,0,0,0,0,0,0,0,0,0,0,0,0,0,0,0,0,0,0,0,0,0,0,0,0,0,0,0,0,0,0,0,0,0,0,0,0,0,0,0,0,0,0,0,0,0,0,0,0,0,0,0,0,0,0,0,0,0,0,0,0,0,0,0],"id":9,"left_children":[1,3,5,7,9,11,13,15,17,19,21,23,25,27,29,31,-1,33,35,37,39,41,43,45,47,49,-1,51,-1,53,-1,55,-1,57,59,61,-1,63,65,67,69,71,73,-1,75,77,79,81,83,85,-1,87,-1,-1,89,-1,-1,-1,-1,-1,-1,-1,-1,-1,-1,-1,-1,-1,-1,-1,-1,-1,-1,-1,-1,-1,-1,-1,-1,-1,-1,-1,-1,-1,-1,-1,-1,-1,-1,-1,-1],"loss_changes":[8.681797E2,1.658634E2,1.7910764E2,2.3496826E1,3.7705032E1,1.07271675E2,7.400604E1,6.542756E0,2.6697693E1,1.663797E1,9.101471E0,5.5171368E1,2.9517944E1,4.0987366E1,1.2489514E1,3.2993013E-1,0E0,2.8169434E1,1.3878326E1,2.7656082E1,1.5943886E1,9.326012E0,6.229263E0,3.578424E1,5.027209E1,1.838182E1,0E0,3.7386963E1,0E0,2.670558E0,0E0,3.2191157E-2,0E0,1.3211014E1,1.0442078E1,3.511854E0,0E0,8.473709E0,7.0159736E0,3.3235626E0,1.4562508E1,5.243971E0,6.4990654E0,0E0,3.6895247E0,3.17874E1,7.4475E-1,4.6392136E1,5.0659847E1,1.1250786E1,0E0,1.5682983E1,0E0,0E0,1.254766E0,0E0,0E0,0E0,0E0,0E0,0E0,0E0,0E0,0E0,0E0,0E0,0E0,0E0,0E0,0E0,0E0,0E0,0E0,0E0,0E0,0E0,0E0,0E0,0E0,0E0,0E0,0E0,0E0,0E0,0E0,0E0,0E0,0E0,0E0,0E0,0E0],"parents":[2147483647,0,0,1,1,2,2,3,3,4,4,5,5,6,6,7,7,8,8,9,9,10,10,11,11,12,12,13,13,14,14,15,15,17,17,18,18,19,19,20,20,21,21,22,22,23,23,24,24,25,25,27,27,29,29,31,31,33,33,34,34,35,35,37,37,38,38,39,39,40,40,41,41,42,42,44,44,45,45,46,46,47,47,48,48,49,49,51,51,54,54],"right_children":[2,4,6,8,10,12,14,16,18,20,22,24,26,28,30,32,-1,34,36,38,40,42,44,46,48,50,-1,52,-1,54,-1,56,-1,58,60,62,-1,64,66,68,70,72,74,-1,76,78,80,82,84,86,-1,88,-1,-1,90,-1,-1,-1,-1,-1,-1,-1,-1,-1,-1,-1,-1,-1,-1,-1,-1,-1,-1,-1,-1,-1,-1,-1,-1,-1,-1,-1,-1,-1,-1,-1,-1,-1,-1,-1,-1],"split_conditions":[1.1E1,3E0,1.2E1,1.0312E2,7E0,4.3913493E0,2.2696932E1,2.564E3,1.3680667E2,1.4E1,1.2471E2,2.2975726E0,1.125E1,1.6666666E1,4.031129E0,6E0,-1.9598104E-1,1E1,2E0,2.1602468E0,6.044E3,1.17E2,1.1111E2,2.9025E4,2.2308E4,1.6E1,-2.1718554E-1,1.8E1,4.2930436E-1,1.1E1,-1.5499333E-1,1.1E1,1.320076E-2,2E0,9.677906E0,5.51E0,-2.3308627E-1,1.0395E2,3.8E0,4.8E1,1.4142135E0,2.3579652E0,2.4350517E1,-1.24572955E-1,6E0,2.872E3,5E1,2.0243E4,3E0,1E1,3.0335733E-1,1.5E1,-1.814778E-1,-3.3117294E-2,8E0,-1.5157859E-2,-4.4337407E-2,-2.2315541E-1,-2.6079236E-2,-1.9954248E-1,-3.6429682E-1,-9.164398E-2,2.8719474E-2,-1.9455306E-2,-1.607881E-1,-1.835846E-1,1.3365536E-2,-2.43934E-2,-1.4580476E-1,-8.429718E-3,-3.000142E-1,-2.7512828E-2,-9.0244636E-2,-1.9822644E-1,-6.486656E-2,-3.1147141E-2,2.4669325E-2,9.995397E-2,-1.6091482E-1,-2.84328E-2,-1.5970077E-1,-2.0924691E-2,-3.037852E-1,2.3376623E-3,1.9605844E-1,1.9031619E-1,5.9803683E-2,1.3370667E-1,2.2135158E-1,8.683813E-2,1.1261272E-2],"split_indices":[12,11,10,36,10,29,15,56,14,40,14,53,7,10,29,0,0,28,19,13,57,14,36,58,58,12,0,38,0,11,0,35,0,27,15,7,0,8,7,2,13,29,23,0,0,55,1,58,29,6,0,12,0,0,2,0,0,0,0,0,0,0,0,0,0,0,0,0,0,0,0,0,0,0,0,0,0,0,0,0,0,0,0,0,0,0,0,0,0,0,0],"split_type":[0,0,0,0,0,0,0,0,0,0,0,0,0,0,0,0,0,0,0,0,0,0,0,0,0,0,0,0,0,0,0,0,0,0,0,0,0,0,0,0,0,0,0,0,0,0,0,0,0,0,0,0,0,0,0,0,0,0,0,0,0,0,0,0,0,0,0,0,0,0,0,0,0,0,0,0,0,0,0,0,0,0,0,0,0,0,0,0,0,0,0],"sum_hessian":[8.65E2,3.2E2,5.45E2,8.8E1,2.32E2,4.11E2,1.34E2,1E1,7.8E1,9.4E1,1.38E2,3.65E2,4.6E1,1.17E2,1.7E1,7E0,3E0,6.4E1,1.4E1,6.9E1,2.5E1,7.2E1,6.6E1,1.22E2,2.43E2,4.5E1,1E0,1.1E2,7E0,1.3E1,4E0,6E0,1E0,1.7E1,4.7E1,8E0,6E0,5E1,1.9E1,9E0,1.6E1,5.5E1,1.7E1,5E0,6.1E1,1.16E2,6E0,1.87E2,5.6E1,3.3E1,1.2E1,1.08E2,2E0,4E0,9E0,2E0,4E0,1.2E1,5E0,9E0,3.8E1,4E0,4E0,5E0,4.5E1,1E0,1.8E1,5E0,4E0,2E0,1.4E1,3E1,2.5E1,9E0,8E0,4.6E1,1.5E1,1.12E2,4E0,1E0,5E0,1.82E2,5E0,3.5E1,2.1E1,2.2E1,1.1E1,3.8E1,7E1,5E0,4E0],"tree_param":{"num_deleted":"0","num_feature":"65","num_nodes":"91","size_leaf_vector":"1"}},{"base_weights":[-3.831564E-3,-8.7742096E-1,6.403206E-1,-1.8555958E0,-6.011047E-1,2.3216131E-1,1.2959263E0,-3.1946766E0,-1.5375986E0,-1.9330783E-1,-9.3063927E-1,5.0365305E-1,-7.924369E-1,1.1222131E0,2.5613127E0,-4.6410847E-2,-3.3565667E-1,-6.224141E-1,-1.898441E0,-1.9361926E0,-6.0061E-3,-6.237172E-1,-1.8361927E0,6.231769E-1,-1.9387549E0,-1.7208802E0,6.865192E-3,5.6052905E-1,1.4913307E0,2.0737536E-1,3.9017743E-1,1.776957E-1,-1.365941E-1,-1.3933177E0,-2.455032E0,1.905539E-1,-2.593272E-1,-4.9955028E-1,3.9327237E-1,-1.8241659E0,-3.4691292E-1,-2.8331897E0,-1.084787E0,3.2536453E-1,1.578828E0,-2.5763745E0,-5.3081285E-2,-1.0233344E0,-3.5984075E-1,-9.92929E-1,1.0062981E0,9.926442E-1,-8.704627E-1,1.6994097E0,-1.6645468E0,3.283769E-2,-3.335797E-2,-1.7349485E-1,-3.2237258E-2,-2.614655E-1,-5.725379E-2,2.5343547E-2,9.54628E-5,-1.10330574E-1,1.6742963E-2,-8.1232935E-3,8.173113E-2,-2.8104654E-1,-1.11077525E-1,-5.76559E-2,3.8345944E-2,-2.3976804E-3,-3.007267E-1,2.9209614E-4,-1.6968054E-1,5.3432058E-3,9.840631E-2,1.754146E-1,-2.1616144E-1,-2.8629264E-1,-1.14447914E-1,-1.6164283E-1,-3.1360053E-3,-6.1508834E-2,-1.9278653E-1,4.226038E-2,1.6078913E-1,5.8042645E-2,2.0531963E-1,2.9850334E-2,-1.9427107E-1,2.0954275E-1,6.7124866E-2,1.7215566E-1,-2.5158235E-1],"categories":[],"categories_nodes":[],"categories_segments":[],"categories_sizes":[],"default_left":[0,0,0,0,0,0,0,0,0,0,0,0,0,0,0,0,0,0,0,0,0,0,0,0,0,0,0,0,0,0,0,0,0,0,0,0,0,0,0,0,0,0,0,0,0,0,0,0,0,0,0,0,0,0,0,0,0,0,0,0,0,0,0,0,0,0,0,0,0,0,0,0,0,0,0,0,0,0,0,0,0,0,0,0,0,0,0,0,0,0,0,0,0,0,0],"id":10,"left_children":[1,3,5,7,9,11,13,15,17,19,21,23,25,27,29,-1,-1,31,33,35,37,39,41,43,45,47,49,51,53,-1,-1,55,-1,57,59,61,-1,63,65,67,69,71,73,75,77,79,-1,81,-1,83,85,87,89,91,93,-1,-1,-1,-1,-1,-1,-1,-1,-1,-1,-1,-1,-1,-1,-1,-1,-1,-1,-1,-1,-1,-1,-1,-1,-1,-1,-1,-1,-1,-1,-1,-1,-1,-1,-1,-1,-1,-1,-1,-1],"loss_changes":[5.0251205E2,1.01322845E2,1.3724117E2,3.0431274E1,3.973188E1,8.885716E1,4.0429108E1,5.0729523E0,2.1604767E1,4.3732048E1,4.443599E1,7.477353E1,4.973296E1,3.544638E1,6.9404297E0,0E0,0E0,1.2735686E1,1.0355576E1,1.8660889E1,2.423797E1,4.057105E1,2.7641678E1,6.807605E1,9.405201E0,3.691712E1,3.797059E1,4.4767136E1,7.177928E1,0E0,0E0,9.569752E-1,0E0,9.684998E0,5.1137543E0,4.7447234E-2,0E0,2.2332825E1,1.3748586E1,1.3061394E1,1.7329258E1,8.241241E0,1.6647385E1,3.30849E1,4.1170532E1,5.9394836E-3,0E0,1.4069326E1,0E0,5.5260754E0,5.992283E0,2.2853085E1,2.188807E1,3.890326E1,2.4508707E1,0E0,0E0,0E0,0E0,0E0,0E0,0E0,0E0,0E0,0E0,0E0,0E0,0E0,0E0,0E0,0E0,0E0,0E0,0E0,0E0,0E0,0E0,0E0,0E0,0E0,0E0,0E0,0E0,0E0,0E0,0E0,0E0,0E0,0E0,0E0,0E0,0E0,0E0,0E0,0E0],"parents":[2147483647,0,0,1,1,2,2,3,3,4,4,5,5,6,6,7,7,8,8,9,9,10,10,11,11,12,12,13,13,14,14,17,17,18,18,19,19,20,20,21,21,22,22,23,23,24,24,25,25,26,26,27,27,28,28,31,31,33,33,34,34,35,35,37,37,38,38,39,39,40,40,41,41,42,42,43,43,44,44,45,45,47,47,49,49,50,50,51,51,52,52,53,53,54,54],"right_children":[2,4,6,8,10,12,14,16,18,20,22,24,26,28,30,-1,-1,32,34,36,38,40,42,44,46,48,50,52,54,-1,-1,56,-1,58,60,62,-1,64,66,68,70,72,74,76,78,80,-1,82,-1,84,86,88,90,92,94,-1,-1,-1,-1,-1,-1,-1,-1,-1,-1,-1,-1,-1,-1,-1,-1,-1,-1,-1,-1,-1,-1,-1,-1,-1,-1,-1,-1,-1,-1,-1,-1,-1,-1,-1,-1,-1,-1,-1,-1],"split_conditions":[1.2E1,5.2E0,1.04E1,6E0,1.7461267E1,1E0,1.4E1,8.491E1,-2E0,2E0,6.666667E-1,1.53564E2,1.598E3,3.2659864E0,1.8E1,-4.6410847E-2,-3.3565667E-1,4.1E1,1.1349E4,2.156386E0,7.2E0,1.19E3,3E0,4.036087E0,8E0,3.3993464E0,2.828427E0,2.879236E0,1.2666667E1,2.0737536E-1,3.9017743E-1,7E0,-1.365941E-1,2.3570225E0,2.5E-1,5.7E1,-2.593272E-1,3.6E1,1.5E0,9.78E3,2.3570225E0,8E0,2.9E1,1.2E1,2.5172E4,1.2E1,-5.3081285E-2,1.25E-1,-3.5984075E-1,1.3143E2,2E0,2.4819348E0,6E0,2.3003529E1,4E0,3.283769E-2,-3.335797E-2,-1.7349485E-1,-3.2237258E-2,-2.614655E-1,-5.725379E-2,2.5343547E-2,9.54628E-5,-1.10330574E-1,1.6742963E-2,-8.1232935E-3,8.173113E-2,-2.8104654E-1,-1.11077525E-1,-5.76559E-2,3.8345944E-2,-2.3976804E-3,-3.007267E-1,2.9209614E-4,-1.6968054E-1,5.3432058E-3,9.840631E-2,1.754146E-1,-2.1616144E-1,-2.8629264E-1,-1.14447914E-1,-1.6164283E-1,-3.1360053E-3,-6.1508834E-2,-1.9278653E-1,4.226038E-2,1.6078913E-1,5.8042645E-2,2.0531963E-1,2.9850334E-2,-1.9427107E-1,2.0954275E-1,6.7124866E-2,1.7215566E-1,-2.5158235E-1],"split_indices":[20,18,18,47,23,34,11,8,34,45,34,22,9,29,20,0,0,6,57,29,18,9,11,29,11,13,13,29,26,0,0,0,0,13,32,1,0,2,13,57,13,6,2,40,59,37,0,33,0,36,27,29,6,31,0,0,0,0,0,0,0,0,0,0,0,0,0,0,0,0,0,0,0,0,0,0,0,0,0,0,0,0,0,0,0,0,0,0,0,0,0,0,0,0,0],"split_type":[0,0,0,0,0,0,0,0,0,0,0,0,0,0,0,0,0,0,0,0,0,0,0,0,0,0,0,0,0,0,0,0,0,0,0,0,0,0,0,0,0,0,0,0,0,0,0,0,0,0,0,0,0,0,0,0,0,0,0,0,0,0,0,0,0,0,0,0,0,0,0,0,0,0,0,0,0,0,0,0,0,0,0,0,0,0,0,0,0,0,0,0,0,0,0],"sum_hessian":[8.91E2,3.78E2,5.13E2,8.2E1,2.96E2,3.17E2,1.96E2,1.4E1,6.8E1,1.33E2,1.63E2,2.51E2,6.6E1,1.74E2,2.2E1,1E0,1.3E1,2E1,4.8E1,1.2E1,1.21E2,1.23E2,4E1,2.4E2,1.1E1,3E1,3.6E1,7E1,1.04E2,1.8E1,4E0,1E1,1E1,2.7E1,2.1E1,3E0,9E0,5.4E1,6.7E1,2.2E1,1.01E2,1.6E1,2.4E1,1.84E2,5.6E1,7E0,4E0,2.3E1,7E0,1.8E1,1.8E1,5.4E1,1.6E1,9.8E1,6E0,8E0,2E0,2E1,7E0,1.9E1,2E0,2E0,1E0,2.8E1,2.6E1,3.2E1,3.5E1,8E0,1.4E1,7.7E1,2.4E1,1E0,1.5E1,9E0,1.5E1,1.31E2,5.3E1,5.4E1,2E0,5E0,2E0,1.4E1,9E0,1.4E1,4E0,1E1,8E0,4E1,1.4E1,8E0,8E0,7E1,2.8E1,1E0,5E0],"tree_param":{"num_deleted":"0","num_feature":"65","num_nodes":"95","size_leaf_vector":"1"}},{"base_weights":[-1.6346794E-2,-1.0787067E0,5.9018713E-1,-1.5269878E0,-5.089144E-1,2.9434368E-1,1.447931E0,-3.5120964E-1,-1.3836553E0,1.9456297E-1,-5.8990836E-1,3.5170266E-1,-1.1221775E0,1.7185138E0,4.8946634E-1,-7.051873E-1,-1.5570098E0,-2.0722358E-1,4.161786E-1,9.6449055E-2,-6.575754E-1,2.584446E-1,1.8285398E0,1.6055813E-1,-2.794346E-1,1.3300227E0,2.1764188E0,-7.9481125E-1,1.0265667E0,-2.3779817E-1,-3.4712216E-1,-1.7421247E0,-9.4143915E-1,-3.0758047E-2,-4.339854E-3,4.5411706E-2,1.762832E-2,-2.7065736E-1,3.1383443E-1,-2.1156824E-1,-6.12243E-1,-2.0672539E-1,4.7339082E-1,2.549595E-1,2.1464012E0,9.126591E-1,-1.1957581E-1,1.4628649E0,9.625953E-2,2.6242065E0,9.0149117E-1,-1.762363E-1,2.0502637E-1,1.3440456E0,2.6328814E-1,-9.310207E-2,1.5415439E-2,-1.3697302E-1,-2.1865891E-1,-1.2866637E-1,-5.3278827E-3,-7.416725E-4,9.0694426E-5,-3.0312061E-2,-7.0402147E-3,3.921693E-2,-1.1725473E-2,-2.6378838E-2,-7.6924466E-2,1.7910369E-2,-1.4395073E-1,3.6701377E-2,2.0195137E-1,-1.1843539E-2,3.7791707E-2,2.2229479E-1,3.842788E-2,3.3153854E-2,1.0787996E-1,2.4208475E-2,1.6358519E-1,-1.9697381E-2,3.65428E-2,2.9984894E-1,9.861908E-2,1.9731846E-1,-4.5208577E-2,1.4965038E-1,-4.7141362E-2,-5.1865738E-2,6.1037954E-2],"categories":[],"categories_nodes":[],"categories_segments":[],"categories_sizes":[],"default_left":[0,0,0,0,0,0,0,0,0,0,0,0,0,0,0,0,0,0,0,0,0,0,0,0,0,0,0,0,0,0,0,0,0,0,0,0,0,0,0,0,0,0,0,0,0,0,0,0,0,0,0,0,0,0,0,0,0,0,0,0,0,0,0,0,0,0,0,0,0,0,0,0,0,0,0,0,0,0,0,0,0,0,0,0,0,0,0,0,0,0,0],"id":11,"left_children":[1,3,5,7,9,11,13,-1,15,17,19,21,23,25,27,29,31,33,35,37,39,41,43,45,-1,47,49,51,53,-1,55,57,59,-1,61,-1,-1,63,65,-1,67,69,71,73,75,77,-1,79,81,83,85,-1,-1,87,89,-1,-1,-1,-1,-1,-1,-1,-1,-1,-1,-1,-1,-1,-1,-1,-1,-1,-1,-1,-1,-1,-1,-1,-1,-1,-1,-1,-1,-1,-1,-1,-1,-1,-1,-1,-1],"loss_changes":[5.496291E2,7.8405304E1,1.3736435E2,4.4364227E1,7.9776573E0,3.3301E1,3.5207672E1,0E0,1.8073334E1,1.4218748E0,5.8224525E0,5.3240932E1,3.4767853E1,1.6317657E1,2.2889082E1,2.0138474E1,1.3059601E1,1.2082982E-1,1.0959387E-2,1.0425844E0,6.173931E0,3.6892902E1,1.0956894E1,1.1292187E1,0E0,9.856827E0,2.5037354E1,3.114088E1,5.219599E0,0E0,8.92436E0,1.3225525E1,9.743116E0,0E0,5.515772E-5,0E0,0E0,1.1164367E-2,3.161381E-1,0E0,5.8696594E0,5.5908062E1,4.070574E1,2.7431738E-1,1.70858E0,3.1817007E-1,0E0,1.1218834E1,6.244838E-1,1.8500732E1,2.1200722E1,0E0,0E0,5.133976E0,2.4878302E0,0E0,0E0,0E0,0E0,0E0,0E0,0E0,0E0,0E0,0E0,0E0,0E0,0E0,0E0,0E0,0E0,0E0,0E0,0E0,0E0,0E0,0E0,0E0,0E0,0E0,0E0,0E0,0E0,0E0,0E0,0E0,0E0,0E0,0E0,0E0,0E0],"parents":[2147483647,0,0,1,1,2,2,3,3,4,4,5,5,6,6,8,8,9,9,10,10,11,11,12,12,13,13,14,14,15,15,16,16,17,17,18,18,19,19,20,20,21,21,22,22,23,23,25,25,26,26,27,27,28,28,30,30,31,31,32,32,34,34,37,37,38,38,40,40,41,41,42,42,43,43,44,44,45,45,47,47,48,48,49,49,50,50,53,53,54,54],"right_children":[2,4,6,8,10,12,14,-1,16,18,20,22,24,26,28,30,32,34,36,38,40,42,44,46,-1,48,50,52,54,-1,56,58,60,-1,62,-1,-1,64,66,-1,68,70,72,74,76,78,-1,80,82,84,86,-1,-1,88,90,-1,-1,-1,-1,-1,-1,-1,-1,-1,-1,-1,-1,-1,-1,-1,-1,-1,-1,-1,-1,-1,-1,-1,-1,-1,-1,-1,-1,-1,-1,-1,-1,-1,-1,-1,-1],"split_conditions":[1.1E1,7E0,1.2E1,2.6666667E0,1.774E3,7.8E1,2.155E4,-3.5120964E-1,5.342E3,1E1,2E0,4.8989797E0,2.4157764E1,1.6E1,1E1,3.5E0,7.07E0,4.5E1,1.0617E2,3.6E0,9.143626E0,1.6128847E1,1.5E1,6E0,-2.794346E-1,2.2620497E1,4.4E0,1.2948E2,1.3035E1,-2.3779817E-1,8E0,5.8E0,3.0724583E0,-3.0758047E-2,5.7E1,4.5411706E-2,1.762832E-2,5E0,2.2E1,-2.1156824E-1,1.5336397E1,1.6055864E1,1.4439333E2,1.4E3,6E0,4E0,-1.1957581E-1,5.09E0,1.5E1,1.1E1,1E0,-1.762363E-1,2.0502637E-1,2.9871E4,1.2333333E1,-9.310207E-2,1.5415439E-2,-1.3697302E-1,-2.1865891E-1,-1.2866637E-1,-5.3278827E-3,-7.416725E-4,9.0694426E-5,-3.0312061E-2,-7.0402147E-3,3.921693E-2,-1.1725473E-2,-2.6378838E-2,-7.6924466E-2,1.7910369E-2,-1.4395073E-1,3.6701377E-2,2.0195137E-1,-1.1843539E-2,3.7791707E-2,2.2229479E-1,3.842788E-2,3.3153854E-2,1.0787996E-1,2.4208475E-2,1.6358519E-1,-1.9697381E-2,3.65428E-2,2.9984894E-1,9.861908E-2,1.9731846E-1,-4.5208577E-2,1.4965038E-1,-4.7141362E-2,-5.1865738E-2,6.1037954E-2],"split_indices":[12,10,10,10,57,2,58,0,57,12,40,21,31,20,11,26,41,2,39,45,31,23,12,37,0,15,45,39,23,0,4,18,21,0,1,0,0,0,2,0,23,31,30,5,0,37,0,38,2,19,49,0,0,58,10,0,0,0,0,0,0,0,0,0,0,0,0,0,0,0,0,0,0,0,0,0,0,0,0,0,0,0,0,0,0,0,0,0,0,0,0],"split_type":[0,0,0,0,0,0,0,0,0,0,0,0,0,0,0,0,0,0,0,0,0,0,0,0,0,0,0,0,0,0,0,0,0,0,0,0,0,0,0,0,0,0,0,0,0,0,0,0,0,0,0,0,0,0,0,0,0,0,0,0,0,0,0,0,0,0,0,0,0,0,0,0,0,0,0,0,0,0,0,0,0,0,0,0,0,0,0,0,0,0,0],"sum_hessian":[8.51E2,3.09E2,5.42E2,1.72E2,1.37E2,4.04E2,1.38E2,1E1,1.62E2,1.4E1,1.23E2,3.89E2,1.5E1,1.07E2,3.1E1,3.4E1,1.28E2,5E0,9E0,1.1E1,1.12E2,3.67E2,2.2E1,9E0,6E0,6E1,4.7E1,9E0,2.2E1,5E0,2.9E1,9.7E1,3.1E1,3E0,2E0,7E0,2E0,4E0,7E0,2E0,1.1E2,1.16E2,2.51E2,4E0,1.8E1,6E0,3E0,5.4E1,6E0,3.4E1,1.3E1,7E0,2E0,1.5E1,7E0,1.3E1,1.6E1,5.5E1,4.2E1,2.2E1,9E0,1E0,1E0,3E0,1E0,6E0,1E0,3.5E1,7.5E1,8.9E1,2.7E1,2.36E2,1.5E1,1E0,3E0,1.7E1,1E0,2E0,4E0,7E0,4.7E1,3E0,3E0,2.7E1,7E0,7E0,6E0,1.4E1,1E0,2E0,5E0],"tree_param":{"num_deleted":"0","num_feature":"65","num_nodes":"91","size_leaf_vector":"1"}},{"base_weights":[6.2708748E-3,-7.4969816E-1,8.0412674E-1,-1.5791155E0,-4.7586092E-1,6.434137E-1,2.0504613E0,-1.396126E0,-3.149006E-1,-2.816608E-1,-8.2852465E-1,4.3765435E-1,1.1287044E0,1.4348243E0,3.3502495E-1,-1.2213397E0,-2.5122364E0,-1.0122049E0,-1.4101927E-1,-1.2775387E0,-2.1985464E-1,1.0710179E0,1.5867107E-1,1.4532565E0,-4.693531E-1,4.0859264E-1,1.6330588E0,-1.0833707E0,-2.5173464E-1,-2.736333E-1,8.846092E-3,5.302202E-1,-1.2780869E0,-4.352049E-1,3.119456E-1,-5.1403576E-1,-1.8050399E0,-7.372522E-1,6.036679E-1,-1.2036953E-1,1.4265918E0,3.5060328E-1,-1.8151454E0,1.7028066E0,5.4780346E-1,-1.7652823E0,1.0031043E0,-6.469504E-2,6.108467E-2,4.4548973E-1,1.861907E0,-1.3194914E-1,-4.7334623E-2,1.1848259E-2,5.888712E-2,-4.2903934E-2,-1.7917465E-1,-1.75332E-2,-8.212026E-2,4.0053166E-2,-1.9476303E-1,-7.7873706E-3,-1.9360149E-1,-2.6127967E-1,-1.4217691E-1,-1.7278773E-1,-2.3142047E-2,1.4043951E-2,8.252507E-2,7.53622E-2,-1.8511568E-1,7.773389E-2,2.0129402E-1,-1.3280348E-1,5.5280533E-2,-9.854716E-2,-2.4431363E-1,1.05997376E-1,2.028925E-1,-1.06341206E-1,1.084244E-1,-1.06485225E-1,-2.1714985E-1,1.1635788E-1,2.4080437E-2,-1.1251355E-2,1.5470982E-3,-3.546629E-2,6.764528E-2,1.9400117E-1,3.275013E-3],"categories":[],"categories_nodes":[],"categories_segments":[],"categories_sizes":[],"default_left":[0,0,0,0,0,0,0,0,0,0,0,0,0,0,0,0,0,0,0,0,0,0,0,0,0,0,0,0,0,0,0,0,0,0,0,0,0,0,0,0,0,0,0,0,0,0,0,0,0,0,0,0,0,0,0,0,0,0,0,0,0,0,0,0,0,0,0,0,0,0,0,0,0,0,0,0,0,0,0,0,0,0,0,0,0,0,0,0,0,0,0],"id":12,"left_children":[1,3,5,7,9,11,13,15,-1,17,19,21,23,25,-1,27,29,31,33,35,37,39,41,43,45,47,49,51,-1,-1,-1,53,55,57,59,61,63,65,67,69,71,73,75,77,79,81,83,85,-1,87,89,-1,-1,-1,-1,-1,-1,-1,-1,-1,-1,-1,-1,-1,-1,-1,-1,-1,-1,-1,-1,-1,-1,-1,-1,-1,-1,-1,-1,-1,-1,-1,-1,-1,-1,-1,-1,-1,-1,-1,-1],"loss_changes":[5.3680707E2,1.0304483E2,8.541156E1,2.806549E1,2.339476E1,3.7949463E1,3.440265E1,1.702504E1,0E0,2.2872099E1,3.3061897E1,4.7891872E1,5.9808517E1,6.452942E0,0E0,1.3544373E1,7.81855E0,1.5441387E1,2.5321096E1,2.7264565E1,2.3027748E1,3.5332695E1,7.26158E1,2.053302E1,3.9934776E1,7.0958924E-1,7.051956E0,1.1474739E1,0E0,0E0,0E0,7.512212E-2,1.275103E1,1.1391706E1,1.5792606E1,1.8455635E1,8.978378E0,1.6136087E1,2.0396137E0,3.164894E1,2.2799316E1,5.9793922E1,6.4498253E0,1.3362717E1,2.0168066E1,8.174591E-1,9.431009E-1,1.3240952E-2,0E0,1.348747E0,3.365242E0,0E0,0E0,0E0,0E0,0E0,0E0,0E0,0E0,0E0,0E0,0E0,0E0,0E0,0E0,0E0,0E0,0E0,0E0,0E0,0E0,0E0,0E0,0E0,0E0,0E0,0E0,0E0,0E0,0E0,0E0,0E0,0E0,0E0,0E0,0E0,0E0,0E0,0E0,0E0,0E0],"parents":[2147483647,0,0,1,1,2,2,3,3,4,4,5,5,6,6,7,7,9,9,10,10,11,11,12,12,13,13,15,15,16,16,17,17,18,18,19,19,20,20,21,21,22,22,23,23,24,24,25,25,26,26,27,27,31,31,32,32,33,33,34,34,35,35,36,36,37,37,38,38,39,39,40,40,41,41,42,42,43,43,44,44,45,45,46,46,47,47,49,49,50,50],"right_children":[2,4,6,8,10,12,14,16,-1,18,20,22,24,26,-1,28,30,32,34,36,38,40,42,44,46,48,50,52,-1,-1,-1,54,56,58,60,62,64,66,68,70,72,74,76,78,80,82,84,86,-1,88,90,-1,-1,-1,-1,-1,-1,-1,-1,-1,-1,-1,-1,-1,-1,-1,-1,-1,-1,-1,-1,-1,-1,-1,-1,-1,-1,-1,-1,-1,-1,-1,-1,-1,-1,-1,-1,-1,-1,-1,-1],"split_conditions":[1.2E1,6E0,4.753946E0,4.6666665E0,1.7E1,1.2E1,1.8E1,8E-1,-3.149006E-1,2.3333333E0,1.3162666E2,9.5E0,4.270831E0,1.577E3,3.3502495E-1,3.3E1,1.4E1,2.139E3,2E0,2.5495098E0,2.1214258E1,2.7276363E0,1.6E1,2.1342E4,4.5221677E0,5E1,1.6E1,2.4944382E0,-2.5173464E-1,-2.736333E-1,8.846092E-3,5.7E1,1.9595917E0,9E0,8E1,1.293E2,5.5E0,7E0,1.6996732E0,1.3707E2,6.41E0,1E1,6.87E0,1.5E1,1.2333333E1,3.2659864E0,5E0,5E0,6.108467E-2,2.2E1,7E0,-1.3194914E-1,-4.7334623E-2,1.1848259E-2,5.888712E-2,-4.2903934E-2,-1.7917465E-1,-1.75332E-2,-8.212026E-2,4.0053166E-2,-1.9476303E-1,-7.7873706E-3,-1.9360149E-1,-2.6127967E-1,-1.4217691E-1,-1.7278773E-1,-2.3142047E-2,1.4043951E-2,8.252507E-2,7.53622E-2,-1.8511568E-1,7.773389E-2,2.0129402E-1,-1.3280348E-1,5.5280533E-2,-9.854716E-2,-2.4431363E-1,1.05997376E-1,2.028925E-1,-1.06341206E-1,1.084244E-1,-1.06485225E-1,-2.1714985E-1,1.1635788E-1,2.4080437E-2,-1.1251355E-2,1.5470982E-3,-3.546629E-2,6.764528E-2,1.9400117E-1,3.275013E-3],"split_indices":[12,10,29,34,35,10,12,25,0,45,14,10,29,9,0,40,4,57,13,29,31,29,12,58,29,1,28,13,0,0,0,1,21,47,2,8,7,10,13,22,41,10,7,12,10,13,0,0,0,2,45,0,0,0,0,0,0,0,0,0,0,0,0,0,0,0,0,0,0,0,0,0,0,0,0,0,0,0,0,0,0,0,0,0,0,0,0,0,0,0,0],"split_type":[0,0,0,0,0,0,0,0,0,0,0,0,0,0,0,0,0,0,0,0,0,0,0,0,0,0,0,0,0,0,0,0,0,0,0,0,0,0,0,0,0,0,0,0,0,0,0,0,0,0,0,0,0,0,0,0,0,0,0,0,0,0,0,0,0,0,0,0,0,0,0,0,0,0,0,0,0,0,0,0,0,0,0,0,0,0,0,0,0,0,0],"sum_hessian":[8.88E2,4.56E2,4.32E2,1.12E2,3.44E2,3.84E2,4.8E1,1.02E2,1E1,2.23E2,1.21E2,2.71E2,1.13E2,3.4E1,1.4E1,9E1,1.2E1,3.5E1,1.88E2,6.9E1,5.2E1,8.2E1,1.89E2,9.4E1,1.9E1,6E0,2.8E1,8.3E1,7E0,1.1E1,1E0,5E0,3E1,1.14E2,7.4E1,2.9E1,4E1,3.2E1,2E1,1.9E1,6.3E1,1.73E2,1.6E1,7.3E1,2.1E1,1E1,9E0,2E0,4E0,5E0,2.3E1,5.9E1,2.4E1,1E0,4E0,1.2E1,1.8E1,6.9E1,4.5E1,7.2E1,2E0,2.3E1,6E0,1.1E1,2.9E1,1E1,2.2E1,7E0,1.3E1,1.3E1,6E0,3.1E1,3.2E1,1.8E1,1.55E2,8E0,8E0,2.6E1,4.7E1,5E0,1.6E1,5E0,5E0,7E0,2E0,1E0,1E0,1E0,4E0,2.2E1,1E0],"tree_param":{"num_deleted":"0","num_feature":"65","num_nodes":"91","size_leaf_vector":"1"}},{"base_weights":[-3.068176E-2,-8.8932633E-1,4.9728248E-1,-1.2843478E0,-3.176948E-1,2.1208656E-1,1.1275253E0,-1.1829765E0,-3.2591766E-1,-3.741547E-1,3.6304154E-2,-1.8587746E-2,5.1594704E-1,1.3846481E0,-3.9860258E-1,-1.9682793E-1,-1.3916608E0,-4.9160033E-1,5.8656693E-2,6.773884E-2,-2.239174E0,7.186977E-1,-5.64439E-1,-1.1861999E0,1.4665737E0,1.2467974E0,-1.2462496E0,-7.3028684E-1,6.174196E-1,-1.2136855E0,-2.2280118E0,-5.819235E-1,1.5763313E-1,3.6112437E-1,-2.2755693E-1,1.3619131E-1,-1.6434838E0,9.740483E-2,-3.4725893E-1,2.5299767E-1,1.061744E0,7.64737E-1,-1.313105E0,8.94927E-2,-1.9302134E-1,1.3673545E0,3.87202E-1,6.5670013E-3,1.574881E0,-2.6613373E-1,-1.7566642E0,-1.0112629E-1,1.4069716E-2,2.6113242E-2,1.20651E-1,-1.3715456E-1,-5.6068014E-2,3.077933E-2,-2.4521537E-1,-6.932937E-2,1.1392733E-2,-2.4240494E-2,3.0188505E-2,9.560457E-3,4.9801268E-2,-2.4425602E-3,-5.28183E-2,-6.564482E-2,2.6443383E-2,-2.4803387E-1,5.7805378E-2,6.865191E-2,-1.7011426E-1,-1.7736188E-1,1.1216009E-1,8.1125885E-2,1.7302036E-2,-3.8014073E-3,-2.0051531E-1,1.1650312E-1,2.3107246E-1,4.6557616E-2,1.6821691E-1,4.9891233E-2,-4.7679346E-2,-1.1799482E-1,-2.2127335E-1],"categories":[],"categories_nodes":[],"categories_segments":[],"categories_sizes":[],"default_left":[0,0,0,0,0,0,0,0,0,0,0,0,0,0,0,0,0,0,0,0,0,0,0,0,0,0,0,0,0,0,0,0,0,0,0,0,0,0,0,0,0,0,0,0,0,0,0,0,0,0,0,0,0,0,0,0,0,0,0,0,0,0,0,0,0,0,0,0,0,0,0,0,0,0,0,0,0,0,0,0,0,0,0,0,0,0,0],"id":13,"left_children":[1,3,5,7,9,11,13,15,-1,17,-1,19,21,23,25,27,29,31,33,35,37,39,41,43,45,47,49,51,53,55,57,59,61,63,65,67,69,-1,-1,71,73,75,77,-1,-1,79,-1,-1,81,83,85,-1,-1,-1,-1,-1,-1,-1,-1,-1,-1,-1,-1,-1,-1,-1,-1,-1,-1,-1,-1,-1,-1,-1,-1,-1,-1,-1,-1,-1,-1,-1,-1,-1,-1,-1,-1],"loss_changes":[3.9529584E2,7.4559814E1,9.6821915E1,3.5381897E1,5.401333E0,2.6154211E1,6.647551E1,3.8415314E1,0E0,6.484474E0,0E0,4.098284E1,3.5672546E1,3.2068665E1,3.642178E1,1.5219393E1,2.0367615E1,5.9558086E0,2.5061467E0,2.4354136E1,3.5088375E1,2.1458282E1,2.6877008E1,9.469333E0,2.8118866E1,3.3841534E0,8.037003E0,5.281522E0,2.6233358E0,1.2631851E1,1.5532639E1,6.8987255E0,8.233597E-1,4.6123946E-1,9.030973E-1,2.0401955E1,1.6306602E1,0E0,0E0,5.115039E1,1.5227142E1,1.3491297E-1,1.49249935E1,0E0,0E0,2.3265656E1,0E0,0E0,4.9930573E-2,1.3660288E0,2.823372E-1,0E0,0E0,0E0,0E0,0E0,0E0,0E0,0E0,0E0,0E0,0E0,0E0,0E0,0E0,0E0,0E0,0E0,0E0,0E0,0E0,0E0,0E0,0E0,0E0,0E0,0E0,0E0,0E0,0E0,0E0,0E0,0E0,0E0,0E0,0E0,0E0],"parents":[2147483647,0,0,1,1,2,2,3,3,4,4,5,5,6,6,7,7,9,9,11,11,12,12,13,13,14,14,15,15,16,16,17,17,18,18,19,19,20,20,21,21,22,22,23,23,24,24,25,25,26,26,27,27,28,28,29,29,30,30,31,31,32,32,33,33,34,34,35,35,36,36,39,39,40,40,41,41,42,42,45,45,48,48,49,49,50,50],"right_children":[2,4,6,8,10,12,14,16,-1,18,-1,20,22,24,26,28,30,32,34,36,38,40,42,44,46,48,50,52,54,56,58,60,62,64,66,68,70,-1,-1,72,74,76,78,-1,-1,80,-1,-1,82,84,86,-1,-1,-1,-1,-1,-1,-1,-1,-1,-1,-1,-1,-1,-1,-1,-1,-1,-1,-1,-1,-1,-1,-1,-1,-1,-1,-1,-1,-1,-1,-1,-1,-1,-1,-1,-1],"split_conditions":[1.1E1,7E0,1.5E1,5E-1,9.666667E0,3.2E1,2.5E1,5.342E3,-3.2591766E-1,2.457E1,3.6304154E-2,6E0,2.4E1,3E1,1.19924446E2,2.3570225E0,3E0,2E0,7.6E0,2.7431036E1,6E0,2.6832817E0,6E0,5E0,1.9E1,2.7E1,6E1,1.276E2,1.7E1,2.2691E4,5.9036937E0,5.2E1,5.67E0,1E1,1.6E1,6E0,5.4E1,9.740483E-2,-3.4725893E-1,2.4494898E0,3.5E0,1.17E2,7.1593313E0,8.94927E-2,-1.9302134E-1,1.3662E2,3.87202E-1,6.5670013E-3,4E0,6E0,9E0,-1.0112629E-1,1.4069716E-2,2.6113242E-2,1.20651E-1,-1.3715456E-1,-5.6068014E-2,3.077933E-2,-2.4521537E-1,-6.932937E-2,1.1392733E-2,-2.4240494E-2,3.0188505E-2,9.560457E-3,4.9801268E-2,-2.4425602E-3,-5.28183E-2,-6.564482E-2,2.6443383E-2,-2.4803387E-1,5.7805378E-2,6.865191E-2,-1.7011426E-1,-1.7736188E-1,1.1216009E-1,8.1125885E-2,1.7302036E-2,-3.8014073E-3,-2.0051531E-1,1.1650312E-1,2.3107246E-1,4.6557616E-2,1.6821691E-1,4.9891233E-2,-4.7679346E-2,-1.1799482E-1,-2.2127335E-1],"split_indices":[12,10,12,16,10,2,35,57,0,31,0,0,52,3,30,13,13,13,41,31,6,21,43,0,12,6,2,36,6,59,15,2,7,12,6,47,1,0,0,21,41,52,15,0,0,22,0,0,0,0,0,0,0,0,0,0,0,0,0,0,0,0,0,0,0,0,0,0,0,0,0,0,0,0,0,0,0,0,0,0,0,0,0,0,0,0,0],"split_type":[0,0,0,0,0,0,0,0,0,0,0,0,0,0,0,0,0,0,0,0,0,0,0,0,0,0,0,0,0,0,0,0,0,0,0,0,0,0,0,0,0,0,0,0,0,0,0,0,0,0,0,0,0,0,0,0,0,0,0,0,0,0,0,0,0,0,0,0,0,0,0,0,0,0,0,0,0,0,0,0,0,0,0,0,0,0,0],"sum_hessian":[8.7E2,3.31E2,5.39E2,1.95E2,1.36E2,3.72E2,1.67E2,1.87E2,8E0,1.26E2,1E1,2.12E2,1.6E2,1.43E2,2.4E1,3.3E1,1.54E2,9.9E1,2.7E1,2.05E2,7E0,1.35E2,2.5E1,4E0,1.39E2,8E0,1.6E1,2E1,1.3E1,1.29E2,2.5E1,8.7E1,1.2E1,1.3E1,1.4E1,1.98E2,7E0,2E0,5E0,5.8E1,7.7E1,9E0,1.6E1,1E0,3E0,1.35E2,4E0,2E0,6E0,6E0,1E1,1.5E1,5E0,9E0,4E0,1.03E2,2.6E1,2E0,2.3E1,7.5E1,1.2E1,3E0,9E0,5E0,8E0,9E0,5E0,2.7E1,1.71E2,5E0,2E0,4.8E1,1E1,1E0,7.6E1,8E0,1E0,6E0,1E1,1.13E2,2.2E1,1E0,5E0,1E0,5E0,6E0,4E0],"tree_param":{"num_deleted":"0","num_feature":"65","num_nodes":"87","size_leaf_vector":"1"}},{"base_weights":[-7.069547E-4,-3.5066816E-1,8.181239E-1,-1.2662506E0,-1.628593E-1,6.311057E-1,1.7693583E0,-1.0959171E0,-2.7407603E0,-2.8362003E-1,9.393204E-1,8.9781505E-1,1.3105594E-1,1.5030109E0,3.4397265E-1,-4.6159107E-2,-1.1930323E0,-3.4117818E-2,-2.969472E-1,-2.5434756E-1,-2.4317847E-1,-3.6803213E-1,1.3174976E0,1.4142865E0,4.3069133E-1,5.9624743E-1,-7.52493E-1,1.6398683E0,4.99794E-1,1.5018936E-1,-4.2740238E-1,-1.2518017E0,3.24693E-2,-3.210488E-1,6.5755135E-1,3.174696E-1,-9.03029E-1,7.521751E-1,1.7662419E0,1.1144578E0,2.1685724E0,-6.7317E-1,8.369484E-1,-1.0173801E-1,8.340062E-1,-2.1872554E0,5.411339E-1,1.21560216E-1,1.8885063E-1,2.8281307E-2,7.9234935E-2,-8.865353E-2,2.5384426E-3,-9.723456E-2,-1.9824599E-1,-1.528667E-1,-2.308907E-2,9.31335E-2,-2.4599362E-2,8.006143E-3,3.4893896E-2,-1.4726615E-1,-5.626467E-2,3.346125E-2,9.678689E-2,2.0683698E-1,6.661938E-2,1.3667515E-1,6.308866E-2,2.5807616E-1,1.5807448E-1,-1.452579E-1,-8.179672E-3,1.2338821E-1,-4.41987E-2,5.581681E-2,2.0399861E-1,-2.3659725E-1,-8.028743E-2,1.9641875E-1,-6.2581144E-2],"categories":[],"categories_nodes":[],"categories_segments":[],"categories_sizes":[],"default_left":[0,0,0,0,0,0,0,0,0,0,0,0,0,0,0,0,0,0,0,0,0,0,0,0,0,0,0,0,0,0,0,0,0,0,0,0,0,0,0,0,0,0,0,0,0,0,0,0,0,0,0,0,0,0,0,0,0,0,0,0,0,0,0,0,0,0,0,0,0,0,0,0,0,0,0,0,0,0,0,0,0],"id":14,"left_children":[1,3,5,7,9,11,13,15,17,19,21,23,25,27,-1,29,31,-1,-1,33,-1,35,37,39,41,43,45,47,49,-1,51,53,-1,55,57,59,61,63,65,67,69,71,73,-1,75,77,79,-1,-1,-1,-1,-1,-1,-1,-1,-1,-1,-1,-1,-1,-1,-1,-1,-1,-1,-1,-1,-1,-1,-1,-1,-1,-1,-1,-1,-1,-1,-1,-1,-1,-1],"loss_changes":[2.478739E2,1.0399819E2,4.4958954E1,2.2865677E1,6.7348816E1,2.895655E1,1.3515778E1,9.527985E0,4.475006E0,2.7992828E1,2.520543E1,3.3649246E1,3.2097168E1,4.3977127E0,0E0,5.9535747E0,8.077301E0,0E0,0E0,2.758226E1,0E0,4.6875796E0,8.565201E0,1.27357025E1,3.4645718E1,2.0414862E1,5.1296867E1,1.1854553E0,1.5678668E-1,0E0,1.6856186E0,1.5019882E1,0E0,4.537521E1,7.8977537E0,1.688993E-2,5.286617E-1,1.3873863E0,5.6015244E0,5.237831E0,2.8179932E-1,9.560539E0,2.8973896E1,0E0,1.3830828E1,1.3167915E0,2.6138596E1,0E0,0E0,0E0,0E0,0E0,0E0,0E0,0E0,0E0,0E0,0E0,0E0,0E0,0E0,0E0,0E0,0E0,0E0,0E0,0E0,0E0,0E0,0E0,0E0,0E0,0E0,0E0,0E0,0E0,0E0,0E0,0E0,0E0,0E0],"parents":[2147483647,0,0,1,1,2,2,3,3,4,4,5,5,6,6,7,7,8,8,9,9,10,10,11,11,12,12,13,13,15,15,16,16,19,19,21,21,22,22,23,23,24,24,25,25,26,26,27,27,28,28,30,30,31,31,33,33,34,34,35,35,36,36,37,37,38,38,39,39,40,40,41,41,42,42,44,44,45,45,46,46],"right_children":[2,4,6,8,10,12,14,16,18,20,22,24,26,28,-1,30,32,-1,-1,34,-1,36,38,40,42,44,46,48,50,-1,52,54,-1,56,58,60,62,64,66,68,70,72,74,-1,76,78,80,-1,-1,-1,-1,-1,-1,-1,-1,-1,-1,-1,-1,-1,-1,-1,-1,-1,-1,-1,-1,-1,-1,-1,-1,-1,-1,-1,-1,-1,-1,-1,-1,-1,-1],"split_conditions":[1.05E1,6E0,1.4333333E1,5E-1,4.1581244E0,1.067E1,1.8E1,1.6E3,5.2E1,4.124318E0,2.1602468E0,2.1018938E1,2.87054E0,1.3E1,3.4397265E-1,2E0,4.1761227E0,-3.4117818E-2,-2.969472E-1,4.109609E0,-2.4317847E-1,1.2291E4,1.5E1,3.2659864E0,6.4E0,1.2245E4,1.3860714E1,1.6E1,4E1,1.5018936E-1,7E0,3.3301651E0,3.24693E-2,3E0,1.19924446E2,3.1666667E0,1.3E3,1.5870408E1,1.2861E4,2.2483E4,9.444445E0,1.5E1,1.1E1,-1.0173801E-1,2.3570225E0,1E1,2.494E3,1.21560216E-1,1.8885063E-1,2.8281307E-2,7.9234935E-2,-8.865353E-2,2.5384426E-3,-9.723456E-2,-1.9824599E-1,-1.528667E-1,-2.308907E-2,9.31335E-2,-2.4599362E-2,8.006143E-3,3.4893896E-2,-1.4726615E-1,-5.626467E-2,3.346125E-2,9.678689E-2,2.0683698E-1,6.661938E-2,1.3667515E-1,6.308866E-2,2.5807616E-1,1.5807448E-1,-1.452579E-1,-8.179672E-3,1.2338821E-1,-4.41987E-2,5.581681E-2,2.0399861E-1,-2.3659725E-1,-8.028743E-2,1.9641875E-1,-6.2581144E-2],"split_indices":[10,10,10,16,29,41,10,56,1,29,13,31,21,6,0,40,21,0,0,13,0,59,20,13,41,59,23,20,2,0,40,29,0,11,30,45,5,23,57,59,26,6,18,0,21,11,56,0,0,0,0,0,0,0,0,0,0,0,0,0,0,0,0,0,0,0,0,0,0,0,0,0,0,0,0,0,0,0,0,0,0],"split_type":[0,0,0,0,0,0,0,0,0,0,0,0,0,0,0,0,0,0,0,0,0,0,0,0,0,0,0,0,0,0,0,0,0,0,0,0,0,0,0,0,0,0,0,0,0,0,0,0,0,0,0,0,0,0,0,0,0,0,0,0,0,0,0,0,0,0,0,0,0,0,0,0,0,0,0,0,0,0,0,0,0],"sum_hessian":[8.63E2,6.05E2,2.58E2,1.02E2,5.03E2,2.17E2,4.1E1,9.3E1,9E0,4.54E2,4.9E1,1.41E2,7.6E1,3.7E1,4E0,8E0,8.5E1,1E0,8E0,4.49E2,5E0,1.1E1,3.8E1,6.6E1,7.5E1,5E1,2.6E1,3.2E1,5E0,1E0,7E0,8.2E1,3E0,4.19E2,3E1,5E0,6E0,1.8E1,2E1,4.9E1,1.7E1,2E1,5.5E1,6E0,4.4E1,1.2E1,1.4E1,1.4E1,1.8E1,4E0,1E0,3E0,4E0,6.1E1,2.1E1,2.8E1,3.91E2,2.3E1,7E0,1E0,4E0,1E0,5E0,7E0,1.1E1,1.5E1,5E0,3.1E1,1.8E1,8E0,9E0,8E0,1.2E1,4.2E1,1.3E1,3.7E1,7E0,1E1,2E0,6E0,8E0],"tree_param":{"num_deleted":"0","num_feature":"65","num_nodes":"81","size_leaf_vector":"1"}},{"base_weights":[2.1013727E-2,-5.621355E-1,6.149383E-1,-1.1875521E0,-4.108044E-1,5.601375E-1,2.4817226E0,-2.1506243E0,-9.997783E-1,-5.324351E-1,7.466691E-2,1.9671057E-1,7.8757334E-1,3.201761E-1,1.5100151E-1,-2.3443022E0,-7.2359756E-2,-6.823085E-1,-1.2446332E0,-4.3969235E-1,-1.734655E0,-1.7183217E-1,4.6815947E-1,-5.372532E-1,5.75463E-1,9.9413145E-1,1.18549E-1,-2.5551763E-1,-9.3024574E-2,-4.7484124E-1,-1.297222E-1,-6.018154E-1,-1.5676191E0,-3.7225294E-1,-1.101386E0,-2.1043744E0,2.703159E-2,-5.731441E-1,1.4347821E-1,6.188444E-1,-1.8749268E-1,-1.9195453E0,6.365228E-2,2.0777929E-1,1.3364096E0,6.5666026E-1,1.5583748E0,7.6927894E-1,-6.012056E-1,-1.0091835E-1,-3.380346E-2,-1.9955635E-3,-7.456174E-2,-2.3560008E-2,-1.7990953E-1,-1.3193571E-3,-5.3342815E-2,-1.685139E-1,2.7676238E-2,-1.3641861E-1,-2.6107433E-1,-3.0773265E-2,-1.5578566E-1,-4.1824564E-2,2.0771544E-2,7.14395E-2,-1.3619423E-3,3.260657E-2,-5.2578833E-2,-2.0865822E-1,-4.44513E-2,-1.9658837E-1,4.0975407E-2,1.09736554E-1,-1.654033E-2,1.5276666E-1,-5.2774858E-2,7.519236E-2,-1.3580498E-1,-4.434158E-2,1.7442577E-1,1.1053937E-1,-3.4407704E-4,-1.13530636E-1,1.3158837E-1],"categories":[],"categories_nodes":[],"categories_segments":[],"categories_sizes":[],"default_left":[0,0,0,0,0,0,0,0,0,0,0,0,0,0,0,0,0,0,0,0,0,0,0,0,0,0,0,0,0,0,0,0,0,0,0,0,0,0,0,0,0,0,0,0,0,0,0,0,0,0,0,0,0,0,0,0,0,0,0,0,0,0,0,0,0,0,0,0,0,0,0,0,0,0,0,0,0,0,0,0,0,0,0,0,0],"id":15,"left_children":[1,3,5,7,9,11,13,15,17,19,21,23,25,-1,-1,27,-1,29,31,33,35,37,39,41,43,45,47,-1,-1,49,-1,51,53,55,57,59,-1,61,63,65,67,69,71,73,75,77,79,81,83,-1,-1,-1,-1,-1,-1,-1,-1,-1,-1,-1,-1,-1,-1,-1,-1,-1,-1,-1,-1,-1,-1,-1,-1,-1,-1,-1,-1,-1,-1,-1,-1,-1,-1,-1,-1],"loss_changes":[3.0132095E2,4.1061295E1,4.2701767E1,1.322123E1,2.1001888E1,3.4560745E1,3.5612946E0,1.8966599E0,4.825363E0,3.0902481E1,7.064125E0,4.562163E1,3.5535767E1,0E0,0E0,9.0312576E-1,0E0,3.7215538E0,7.3614273E0,1.1415432E1,1.5394371E1,5.776435E0,2.8823423E0,4.663729E1,2.9939388E1,3.64886E1,2.9501177E1,0E0,0E0,1.6326032E0,0E0,1.2402096E0,7.5927315E0,1.3997856E1,1.9774336E1,2.8102036E0,0E0,4.747675E0,1.0250492E0,1.3996716E0,1.2138488E0,3.2610207E0,2.8902569E1,2.4747887E1,1.3284889E1,2.501215E1,2.7936646E1,8.574644E0,3.2211494E1,0E0,0E0,0E0,0E0,0E0,0E0,0E0,0E0,0E0,0E0,0E0,0E0,0E0,0E0,0E0,0E0,0E0,0E0,0E0,0E0,0E0,0E0,0E0,0E0,0E0,0E0,0E0,0E0,0E0,0E0,0E0,0E0,0E0,0E0,0E0,0E0],"parents":[2147483647,0,0,1,1,2,2,3,3,4,4,5,5,6,6,7,7,8,8,9,9,10,10,11,11,12,12,15,15,17,17,18,18,19,19,20,20,21,21,22,22,23,23,24,24,25,25,26,26,29,29,31,31,32,32,33,33,34,34,35,35,37,37,38,38,39,39,40,40,41,41,42,42,43,43,44,44,45,45,46,46,47,47,48,48],"right_children":[2,4,6,8,10,12,14,16,18,20,22,24,26,-1,-1,28,-1,30,32,34,36,38,40,42,44,46,48,-1,-1,50,-1,52,54,56,58,60,-1,62,64,66,68,70,72,74,76,78,80,82,84,-1,-1,-1,-1,-1,-1,-1,-1,-1,-1,-1,-1,-1,-1,-1,-1,-1,-1,-1,-1,-1,-1,-1,-1,-1,-1,-1,-1,-1,-1,-1,-1,-1,-1,-1,-1],"split_conditions":[1.2E1,8E0,6.4683847E0,5E0,1.793E3,1.611E3,4E-1,5.84E0,5E0,1.769E3,1.1E1,1E1,3.0230596E0,3.201761E-1,1.5100151E-1,1E1,-7.2359756E-2,6.3E0,1.261E3,1.5187E4,2.2921E4,4.1666665E0,9.58E0,9.700667E1,7.64E0,3E0,2.1602468E0,-2.5551763E-1,-9.3024574E-2,6E0,-1.297222E-1,4E1,1.2088E4,8E0,2.58E3,1.8856181E0,2.703159E-2,5E0,9E0,1.361E4,2E0,4.354308E0,7.5E0,5.78E0,1.598E3,2.8203E4,4.6E0,2.2900835E1,1.4854E4,-1.0091835E-1,-3.380346E-2,-1.9955635E-3,-7.456174E-2,-2.3560008E-2,-1.7990953E-1,-1.3193571E-3,-5.3342815E-2,-1.685139E-1,2.7676238E-2,-1.3641861E-1,-2.6107433E-1,-3.0773265E-2,-1.5578566E-1,-4.1824564E-2,2.0771544E-2,7.14395E-2,-1.3619423E-3,3.260657E-2,-5.2578833E-2,-2.0865822E-1,-4.44513E-2,-1.9658837E-1,4.0975407E-2,1.09736554E-1,-1.654033E-2,1.5276666E-1,-5.2774858E-2,7.519236E-2,-1.3580498E-1,-4.434158E-2,1.7442577E-1,1.1053937E-1,-3.4407704E-4,-1.13530636E-1,1.3158837E-1],"split_indices":[12,12,21,12,9,9,25,7,0,9,12,40,48,0,0,4,0,26,9,57,59,45,7,14,41,13,13,0,0,12,0,2,59,40,56,13,0,0,12,57,6,21,26,7,9,58,31,15,57,0,0,0,0,0,0,0,0,0,0,0,0,0,0,0,0,0,0,0,0,0,0,0,0,0,0,0,0,0,0,0,0,0,0,0,0],"split_type":[0,0,0,0,0,0,0,0,0,0,0,0,0,0,0,0,0,0,0,0,0,0,0,0,0,0,0,0,0,0,0,0,0,0,0,0,0,0,0,0,0,0,0,0,0,0,0,0,0,0,0,0,0,0,0,0,0,0,0,0,0,0,0,0,0,0,0,0,0,0,0,0,0,0,0,0,0,0,0,0,0,0,0,0,0],"sum_hessian":[8.68E2,4.38E2,4.3E2,8.4E1,3.54E2,4.19E2,1.1E1,1.2E1,7.2E1,2.83E2,7.1E1,1.62E2,2.57E2,5E0,6E0,1E1,2E0,3.3E1,3.9E1,2.64E2,1.9E1,4.4E1,2.7E1,5.5E1,1.07E2,1.96E2,6.1E1,8E0,2E0,2.6E1,7E0,1.4E1,2.5E1,2.41E2,2.3E1,1.6E1,3E0,1.9E1,2.5E1,2.2E1,5E0,1.6E1,3.9E1,7.3E1,3.4E1,1.24E2,7.2E1,3.2E1,2.9E1,4E0,2.2E1,3E0,1.1E1,4E0,2.1E1,7.5E1,1.66E2,1.6E1,7E0,8E0,8E0,1.6E1,3E0,2E0,2.3E1,1.9E1,3E0,2E0,3E0,1.4E1,2E0,5E0,3.4E1,2.1E1,5.2E1,3.1E1,3E0,1.19E2,5E0,6E0,6.6E1,2.2E1,1E1,2.3E1,6E0],"tree_param":{"num_deleted":"0","num_feature":"65","num_nodes":"85","size_leaf_vector":"1"}},{"base_weights":[-3.416492E-2,-7.1453905E-1,3.7034297E-1,-1.057907E0,-3.0090684E-1,1.2281436E-1,8.2199043E-1,-9.6757007E-1,-2.3167877E0,-9.986177E-2,-4.4234738E-1,-2.2172052E-1,3.884256E-1,6.470894E-1,1.6708083E0,-2.0023237E-1,-1.0720289E0,-3.072176E-2,-2.4870232E-1,-1.7573892E-1,3.1227333E-2,-5.6636995E-1,2.9765394E-1,-1.7866215E-2,-1.4347681E0,1.5649769E-1,9.1925144E-1,7.671786E-1,-3.4290186E-1,1.3001498E0,2.6202652E-1,-1.0293137E-1,-4.868057E-3,-9.098136E-1,-1.5558536E0,-2.79336E-1,2.9766217E-1,-8.0857956E-1,-2.8075695E-2,3.7633857E-1,-3.232808E-2,-7.13767E-1,4.730621E-1,-1.6947795E0,7.7689745E-2,-2.3220102E-1,9.222952E-1,2.9822323E-1,1.4533317E0,4.7204226E-1,1.1561809E0,-7.135272E-1,7.6342946E-1,1.6324615E-2,1.3919134E-1,-1.1215131E-2,3.9866116E-2,-6.2781304E-2,-1.2065724E-1,-1.7728327E-1,1.0058718E-2,-1.4698696E-2,-5.836309E-2,5.466493E-3,3.5157837E-2,-5.8658447E-2,-1.2575325E-1,-8.9259885E-2,9.108999E-3,4.2424425E-2,1.7446613E-2,3.873142E-2,-1.1754238E-1,6.5313704E-2,-2.286659E-1,-2.2482896E-1,-5.834782E-2,-1.059755E-2,-2.0448087E-1,-1.3642316E-1,1.0542349E-1,4.7550492E-2,-1.3967197E-1,1.7930433E-1,-7.397196E-2,-6.5575026E-2,6.534516E-2,1.679618E-1,2.7923116E-2,3.636101E-2,-1.1807431E-1,-5.279341E-2,1.2182539E-1],"categories":[],"categories_nodes":[],"categories_segments":[],"categories_sizes":[],"default_left":[0,0,0,0,0,0,0,0,0,0,0,0,0,0,0,0,0,0,0,0,0,0,0,0,0,0,0,0,0,0,0,0,0,0,0,0,0,0,0,0,0,0,0,0,0,0,0,0,0,0,0,0,0,0,0,0,0,0,0,0,0,0,0,0,0,0,0,0,0,0,0,0,0,0,0,0,0,0,0,0,0,0,0,0,0,0,0,0,0,0,0,0,0],"id":16,"left_children":[1,3,5,7,9,11,13,15,17,19,21,23,25,27,29,31,33,-1,-1,35,-1,37,39,41,43,45,47,49,51,53,-1,-1,55,57,59,61,63,65,67,69,-1,71,73,75,-1,77,79,81,83,85,87,89,91,-1,-1,-1,-1,-1,-1,-1,-1,-1,-1,-1,-1,-1,-1,-1,-1,-1,-1,-1,-1,-1,-1,-1,-1,-1,-1,-1,-1,-1,-1,-1,-1,-1,-1,-1,-1,-1,-1,-1,-1],"loss_changes":[2.3695097E2,4.5272675E1,6.0268707E1,1.7659958E1,4.135908E0,3.2115437E1,2.7274536E1,1.3010941E1,2.999035E0,1.99372E0,8.061392E0,3.7808968E1,2.4232578E1,1.9285027E1,7.8548355E0,3.3964202E0,9.9646E0,0E0,0E0,2.6824255E0,0E0,9.625423E0,7.5681734E-1,4.5433796E1,1.3967953E1,4.1589523E1,1.9467316E1,1.587188E1,7.9253464E0,2.3809319E0,0E0,0E0,8.2396495E-1,8.53167E0,1.2757774E1,1.6862319E0,1.1179584E-1,4.3452835E0,2.5538225E0,4.2033672E-2,0E0,2.8412947E1,4.025611E1,1.0990494E1,0E0,2.1061455E1,1.561734E1,9.378134E0,2.5166512E1,1.740964E1,2.7531715E1,7.4749103E0,3.579876E0,0E0,0E0,0E0,0E0,0E0,0E0,0E0,0E0,0E0,0E0,0E0,0E0,0E0,0E0,0E0,0E0,0E0,0E0,0E0,0E0,0E0,0E0,0E0,0E0,0E0,0E0,0E0,0E0,0E0,0E0,0E0,0E0,0E0,0E0,0E0,0E0,0E0,0E0,0E0,0E0],"parents":[2147483647,0,0,1,1,2,2,3,3,4,4,5,5,6,6,7,7,8,8,9,9,10,10,11,11,12,12,13,13,14,14,15,15,16,16,19,19,21,21,22,22,23,23,24,24,25,25,26,26,27,27,28,28,29,29,32,32,33,33,34,34,35,35,36,36,37,37,38,38,39,39,41,41,42,42,43,43,45,45,46,46,47,47,48,48,49,49,50,50,51,51,52,52],"right_children":[2,4,6,8,10,12,14,16,18,20,22,24,26,28,30,32,34,-1,-1,36,-1,38,40,42,44,46,48,50,52,54,-1,-1,56,58,60,62,64,66,68,70,-1,72,74,76,-1,78,80,82,84,86,88,90,92,-1,-1,-1,-1,-1,-1,-1,-1,-1,-1,-1,-1,-1,-1,-1,-1,-1,-1,-1,-1,-1,-1,-1,-1,-1,-1,-1,-1,-1,-1,-1,-1,-1,-1,-1,-1,-1,-1,-1,-1],"split_conditions":[1.1E1,7E0,1.04E1,5E-1,1.7461267E1,1.584E3,1.4333333E1,1.0537E2,4E0,9.5E0,2E0,8E0,3.2E1,2.722E3,1.6666666E1,5.015E0,3.0594118E0,-3.072176E-2,-2.4870232E-1,3.1E1,3.1227333E-2,2.457E1,5E0,2.8565714E0,8.8E1,1E1,1.3E1,2.4944382E0,1.3113E2,7.45E0,2.6202652E-1,-1.0293137E-1,8E0,2.499E3,3E0,1E1,1E1,2.2346E4,9E0,1.2597E2,-3.232808E-2,8.2E0,9.71E0,3E0,7.7689745E-2,2.6634117E1,6E0,1.12E1,9E0,1.1E1,1.067E1,3.4988666E0,1.6E1,1.6324615E-2,1.3919134E-1,-1.1215131E-2,3.9866116E-2,-6.2781304E-2,-1.2065724E-1,-1.7728327E-1,1.0058718E-2,-1.4698696E-2,-5.836309E-2,5.466493E-3,3.5157837E-2,-5.8658447E-2,-1.2575325E-1,-8.9259885E-2,9.108999E-3,4.2424425E-2,1.7446613E-2,3.873142E-2,-1.1754238E-1,6.5313704E-2,-2.286659E-1,-2.2482896E-1,-5.834782E-2,-1.059755E-2,-2.0448087E-1,-1.3642316E-1,1.0542349E-1,4.7550492E-2,-1.3967197E-1,1.7930433E-1,-7.397196E-2,-6.5575026E-2,6.534516E-2,1.679618E-1,2.7923116E-2,3.636101E-2,-1.1807431E-1,-5.279341E-2,1.2182539E-1],"split_indices":[12,10,18,16,23,9,10,36,0,10,13,0,2,56,10,23,21,0,0,35,0,31,0,21,2,35,12,13,22,41,0,0,40,56,19,4,12,58,12,8,0,18,41,19,0,31,40,38,11,10,41,23,2,0,0,0,0,0,0,0,0,0,0,0,0,0,0,0,0,0,0,0,0,0,0,0,0,0,0,0,0,0,0,0,0,0,0,0,0,0,0,0,0],"split_type":[0,0,0,0,0,0,0,0,0,0,0,0,0,0,0,0,0,0,0,0,0,0,0,0,0,0,0,0,0,0,0,0,0,0,0,0,0,0,0,0,0,0,0,0,0,0,0,0,0,0,0,0,0,0,0,0,0,0,0,0,0,0,0,0,0,0,0,0,0,0,0,0,0,0,0,0,0,0,0,0,0,0,0,0,0,0,0,0,0,0,0,0,0],"sum_hessian":[8.59E2,3.2E2,5.39E2,1.74E2,1.46E2,3.49E2,1.9E2,1.64E2,1E1,6.1E1,8.5E1,1.52E2,1.97E2,1.59E2,3.1E1,2E1,1.44E2,1E0,9E0,5.2E1,9E0,7.3E1,1.2E1,1.31E2,2.1E1,1.38E2,5.9E1,1.42E2,1.7E1,2.4E1,7E0,3E0,1.7E1,1.1E2,3.4E1,4.3E1,9E0,5E1,2.3E1,1.1E1,1E0,5.4E1,7.7E1,1.9E1,2E0,9.2E1,4.6E1,2.8E1,3.1E1,8.2E1,6E1,1.3E1,4E0,2E0,2.2E1,1.4E1,3E0,5.8E1,5.2E1,3E1,4E0,3.1E1,1.2E1,2E0,7E0,3.5E1,1.5E1,2E0,2.1E1,8E0,3E0,1.6E1,3.8E1,7.3E1,4E0,1.2E1,7E0,8.7E1,5E0,2E0,4.4E1,2.6E1,2E0,2.7E1,4E0,1.1E1,7.1E1,3.7E1,2.3E1,4E0,9E0,1E0,3E0],"tree_param":{"num_deleted":"0","num_feature":"65","num_nodes":"93","size_leaf_vector":"1"}},{"base_weights":[-6.915817E-2,-6.915125E-1,2.977342E-1,-1.0518644E0,-4.581682E-1,1.6875347E-2,6.2199235E-1,-9.432737E-1,-2.091506E-1,-5.352991E-1,4.444004E-2,-9.525769E-2,4.8084942E-1,6.729603E-1,-1.5798523E-1,-1.0720521E0,-1.3784257E-1,-1.038946E0,-4.3714797E-1,3.1018344E-1,-2.6560542E-1,-3.689514E-1,2.2160012E-1,3.2835224E-1,9.717359E-1,5.514462E-1,1.4721502E0,-6.15496E-1,-1.2910044E0,1.08896956E-1,-1.3255927E-1,-2.934677E-1,-1.4601998E0,5.5059705E-2,-5.617487E-1,-1.3299E-1,4.320593E-1,-3.550598E-2,2.4431944E-3,-1.9196005E0,-2.4857499E-1,-7.54326E-2,8.342627E-1,4.91483E-1,1.9600391E-3,1.2012588E0,-1.9375993E-2,1.3546531E0,4.3440393E-1,1.0414069E0,2.1998052E-1,-7.621912E-2,1.1544185E-1,-1.3576515E-1,8.14364E-3,2.5451088E-2,-9.387766E-3,-3.3511163E-3,-5.0451297E-2,-1.9582127E-1,-6.551589E-2,-4.5210954E-2,3.312498E-2,-3.196425E-3,-6.533239E-2,-3.4251094E-2,5.102062E-3,2.4872372E-2,5.7394095E-2,-4.1399598E-2,-2.6034036E-1,-4.558604E-2,5.9092384E-2,-5.5275287E-2,3.5604145E-2,5.420472E-2,1.2072279E-1,5.470738E-2,-5.6032468E-2,-3.051242E-2,4.403718E-2,1.3604377E-1,5.825863E-2,4.7224108E-2,1.4063564E-1,6.2090304E-2,-5.0583865E-2,1.2569827E-1,3.998897E-2],"categories":[],"categories_nodes":[],"categories_segments":[],"categories_sizes":[],"default_left":[0,0,0,0,0,0,0,0,0,0,0,0,0,0,0,0,0,0,0,0,0,0,0,0,0,0,0,0,0,0,0,0,0,0,0,0,0,0,0,0,0,0,0,0,0,0,0,0,0,0,0,0,0,0,0,0,0,0,0,0,0,0,0,0,0,0,0,0,0,0,0,0,0,0,0,0,0,0,0,0,0,0,0,0,0,0,0,0,0],"id":17,"left_children":[1,3,5,7,9,11,13,15,-1,17,19,21,23,25,-1,27,29,31,33,35,37,39,41,43,45,47,49,51,53,55,-1,57,59,61,63,65,67,-1,-1,69,71,73,75,77,79,81,-1,83,85,87,-1,-1,-1,-1,-1,-1,-1,-1,-1,-1,-1,-1,-1,-1,-1,-1,-1,-1,-1,-1,-1,-1,-1,-1,-1,-1,-1,-1,-1,-1,-1,-1,-1,-1,-1,-1,-1,-1,-1],"loss_changes":[1.9703246E2,2.6425598E1,4.9440926E1,1.2139069E1,7.6220474E0,1.52376375E1,2.934349E1,1.1780273E1,0E0,7.949524E0,2.3069847E0,2.054815E1,3.9478798E0,2.3175056E1,0E0,9.101837E0,5.1264563E0,8.050442E0,8.862366E0,8.676418E-1,3.4596133E-1,2.3228859E1,2.0080822E1,2.3950443E0,3.7103586E0,1.9717514E1,7.738945E0,9.707579E0,6.1475143E0,4.6679503E-1,0E0,5.8658165E-1,5.532711E0,4.3520155E0,5.5583534E0,1.7169143E-1,1.6939068E-1,0E0,0E0,8.18803E0,2.0977262E1,1.564315E1,3.2691307E0,2.0606632E0,2.2884374E0,2.9070377E-1,0E0,5.676956E-1,3.3631405E1,2.5398502E0,0E0,0E0,0E0,0E0,0E0,0E0,0E0,0E0,0E0,0E0,0E0,0E0,0E0,0E0,0E0,0E0,0E0,0E0,0E0,0E0,0E0,0E0,0E0,0E0,0E0,0E0,0E0,0E0,0E0,0E0,0E0,0E0,0E0,0E0,0E0,0E0,0E0,0E0,0E0],"parents":[2147483647,0,0,1,1,2,2,3,3,4,4,5,5,6,6,7,7,9,9,10,10,11,11,12,12,13,13,15,15,16,16,17,17,18,18,19,19,20,20,21,21,22,22,23,23,24,24,25,25,26,26,27,27,28,28,29,29,31,31,32,32,33,33,34,34,35,35,36,36,39,39,40,40,41,41,42,42,43,43,44,44,45,45,47,47,48,48,49,49],"right_children":[2,4,6,8,10,12,14,16,-1,18,20,22,24,26,-1,28,30,32,34,36,38,40,42,44,46,48,50,52,54,56,-1,58,60,62,64,66,68,-1,-1,70,72,74,76,78,80,82,-1,84,86,88,-1,-1,-1,-1,-1,-1,-1,-1,-1,-1,-1,-1,-1,-1,-1,-1,-1,-1,-1,-1,-1,-1,-1,-1,-1,-1,-1,-1,-1,-1,-1,-1,-1,-1,-1,-1,-1,-1,-1],"split_conditions":[1.1E1,4E0,1.4E1,4.6666665E0,2.591E4,1E1,7.7E1,3.3704598E0,-2.091506E-1,1.2472191E0,1.2E1,3.2E1,1E0,4.874423E0,-1.5798523E-1,1.6309E4,5.1E1,2E0,7E0,5.45E0,8.18E0,1.19E3,1.625E3,1.8547237E0,2.6921429E1,1.5E0,1.7E1,1.2E1,2.8871048E1,1E0,-1.3255927E-1,1.3E1,3.3333334E-1,9E0,1.3278E4,2.7E1,1.1692E2,-3.550598E-2,2.4431944E-3,9.168E1,1.27596664E2,3.3E1,1.3E1,4.068852E0,1.2E1,1.7E1,-1.9375993E-2,6.8E0,1.808E3,1.1111111E-1,2.1998052E-1,-7.621912E-2,1.1544185E-1,-1.3576515E-1,8.14364E-3,2.5451088E-2,-9.387766E-3,-3.3511163E-3,-5.0451297E-2,-1.9582127E-1,-6.551589E-2,-4.5210954E-2,3.312498E-2,-3.196425E-3,-6.533239E-2,-3.4251094E-2,5.102062E-3,2.4872372E-2,5.7394095E-2,-4.1399598E-2,-2.6034036E-1,-4.558604E-2,5.9092384E-2,-5.5275287E-2,3.5604145E-2,5.420472E-2,1.2072279E-1,5.470738E-2,-5.6032468E-2,-3.051242E-2,4.403718E-2,1.3604377E-1,5.825863E-2,4.7224108E-2,1.4063564E-1,6.2090304E-2,-5.0583865E-2,1.2569827E-1,3.998897E-2],"split_indices":[12,11,12,34,59,11,2,21,0,48,28,2,13,21,0,59,6,21,47,7,7,9,9,21,15,21,12,28,15,46,0,28,34,12,59,2,8,0,0,14,30,35,12,48,40,2,0,50,9,32,0,0,0,0,0,0,0,0,0,0,0,0,0,0,0,0,0,0,0,0,0,0,0,0,0,0,0,0,0,0,0,0,0,0,0,0,0,0,0],"split_type":[0,0,0,0,0,0,0,0,0,0,0,0,0,0,0,0,0,0,0,0,0,0,0,0,0,0,0,0,0,0,0,0,0,0,0,0,0,0,0,0,0,0,0,0,0,0,0,0,0,0,0,0,0,0,0,0,0,0,0,0,0,0,0,0,0,0,0,0,0,0,0,0,0,0,0,0,0,0,0,0,0,0,0,0,0,0,0,0,0],"sum_hessian":[8.61E2,3.19E2,5.42E2,1.24E2,1.95E2,2.91E2,2.51E2,1.14E2,1E1,1.69E2,2.6E1,2.35E2,5.6E1,2.46E2,5E0,9.8E1,1.6E1,2.6E1,1.43E2,1.4E1,1.2E1,1.26E2,1.09E2,4.4E1,1.2E1,2.15E2,3.1E1,3.3E1,6.5E1,1.4E1,2E0,1E1,1.6E1,2.9E1,1.14E2,3E0,1.1E1,9E0,3E0,8E0,1.18E2,7.4E1,3.5E1,2.9E1,1.5E1,1E1,2E0,2.6E1,1.89E2,2.1E1,1E1,3.1E1,2E0,6.2E1,3E0,8E0,6E0,5E0,5E0,9E0,7E0,1E1,1.9E1,1.7E1,9.7E1,1E0,2E0,6E0,5E0,3E0,5E0,9.5E1,2.3E1,3.5E1,3.9E1,2.1E1,1.4E1,2.8E1,1E0,9E0,6E0,7E0,3E0,2E0,2.4E1,1.58E2,3.1E1,1.5E1,6E0],"tree_param":{"num_deleted":"0","num_feature":"65","num_nodes":"89","size_leaf_vector":"1"}},{"base_weights":[-1.8293565E-3,-3.4949315E-1,5.377582E-1,-8.711258E-1,-2.0841858E-1,1.8503182E-1,7.737192E-1,-9.4936293E-1,4.6040806E-1,-1.3712707E-1,-7.2713625E-1,6.0480124E-1,-8.7951183E-1,8.815443E-1,-4.0741897E-1,-1.8637238E-1,-8.474137E-1,7.774976E-2,1.7807273E-2,-3.3611968E-1,5.1234484E-2,-1.2487786E-1,-1.515346E0,-2.2779846E-1,8.964731E-1,-1.1342254E0,7.529025E-1,6.279952E-1,1.4924738E0,9.206475E-2,-1.3362475E-1,-7.2701925E-1,-1.8462226E0,-1.5372345E0,-3.0049217E-1,1.5262873E-1,-8.3345723E-1,3.2206693E-1,-5.3608376E-1,-2.130221E-1,-1.2091935E0,6.4686465E-1,-1.7794122E0,1.1928062E0,4.6100026E-1,-4.6782097E-1,-2.3725155E-1,-2.1012355E-2,9.875324E-2,3.0053923E-1,1.4645779E0,-1.5094624E-1,1.5760183E0,-8.74112E-2,-2.8609289E-2,-1.730299E-3,-2.0475136E-1,-1.8334292E-1,-1.7622804E-2,4.1138154E-2,-3.6852583E-2,-7.364499E-3,4.7420602E-2,6.0988534E-2,-1.657556E-1,-9.469809E-3,6.1043233E-2,-8.792082E-2,1.8232506E-2,-1.2576874E-1,-2.1664524E-2,1.2135644E-1,-5.4675634E-3,3.378706E-2,-2.3509668E-1,1.2456796E-1,-5.4037284E-2,-7.570561E-2,6.62046E-2,4.5872945E-2,-1.0543332E-1,4.246991E-2,-1.3919474E-1,1.6753952E-1,6.0987156E-3,9.1835305E-2,1.7046161E-1],"categories":[],"categories_nodes":[],"categories_segments":[],"categories_sizes":[],"default_left":[0,0,0,0,0,0,0,0,0,0,0,0,0,0,0,0,0,0,0,0,0,0,0,0,0,0,0,0,0,0,0,0,0,0,0,0,0,0,0,0,0,0,0,0,0,0,0,0,0,0,0,0,0,0,0,0,0,0,0,0,0,0,0,0,0,0,0,0,0,0,0,0,0,0,0,0,0,0,0,0,0,0,0,0,0,0,0],"id":18,"left_children":[1,3,5,7,9,11,13,15,17,19,21,23,25,27,29,-1,31,-1,-1,33,35,37,39,41,43,45,47,49,51,-1,-1,53,55,57,59,61,63,65,67,-1,69,71,73,75,77,79,-1,-1,-1,81,83,-1,85,-1,-1,-1,-1,-1,-1,-1,-1,-1,-1,-1,-1,-1,-1,-1,-1,-1,-1,-1,-1,-1,-1,-1,-1,-1,-1,-1,-1,-1,-1,-1,-1,-1,-1],"loss_changes":[1.6564677E2,3.9335785E1,2.8654305E1,1.2313087E1,1.5579876E1,6.309273E1,2.6721924E1,8.488243E0,4.8822784E-1,1.4035697E1,2.4020773E1,2.4731651E1,1.748588E1,2.849385E1,2.343404E1,0E0,1.0562614E1,0E0,0E0,7.3263474E0,1.7439821E1,5.686245E0,1.5655518E0,3.7793797E1,9.128502E0,2.777216E1,1.5632317E0,3.6816227E1,1.6172684E1,0E0,0E0,5.587059E0,3.6460152E0,1.6925125E0,8.772388E0,1.2695946E1,2.4800055E1,1.860516E0,4.10436E0,0E0,5.457821E-1,7.2224803E0,1.2895746E1,4.705246E0,8.337528E0,1.3526048E1,0E0,0E0,0E0,2.1394909E1,1.1142059E1,0E0,3.0015564E0,0E0,0E0,0E0,0E0,0E0,0E0,0E0,0E0,0E0,0E0,0E0,0E0,0E0,0E0,0E0,0E0,0E0,0E0,0E0,0E0,0E0,0E0,0E0,0E0,0E0,0E0,0E0,0E0,0E0,0E0,0E0,0E0,0E0,0E0],"parents":[2147483647,0,0,1,1,2,2,3,3,4,4,5,5,6,6,7,7,8,8,9,9,10,10,11,11,12,12,13,13,14,14,16,16,19,19,20,20,21,21,22,22,23,23,24,24,25,25,26,26,27,27,28,28,31,31,32,32,33,33,34,34,35,35,36,36,37,37,38,38,40,40,41,41,42,42,43,43,44,44,45,45,49,49,50,50,52,52],"right_children":[2,4,6,8,10,12,14,16,18,20,22,24,26,28,30,-1,32,-1,-1,34,36,38,40,42,44,46,48,50,52,-1,-1,54,56,58,60,62,64,66,68,-1,70,72,74,76,78,80,-1,-1,-1,82,84,-1,86,-1,-1,-1,-1,-1,-1,-1,-1,-1,-1,-1,-1,-1,-1,-1,-1,-1,-1,-1,-1,-1,-1,-1,-1,-1,-1,-1,-1,-1,-1,-1,-1,-1,-1],"split_conditions":[1.3E1,6E0,1.6560421E1,1E1,2.6650604E1,1.3035E1,6.2E1,2.6666667E0,6E0,1.1E1,2.5E0,5.7E1,4.082483E0,3.2998316E0,1.2196333E2,-1.8637238E-1,3E0,7.774976E-2,1.7807273E-2,3.75E0,8E0,1.23382E2,2E0,3E0,2.1936E4,3.2659864E0,4E0,2.2817E4,5.04E0,9.206475E-2,-1.3362475E-1,2.0213E4,8.338333E1,4E0,2E0,1.2233E2,7.1E0,7E0,1.735E1,-2.130221E-1,1.8E1,9.121E1,1.4E3,7E1,9E0,5E0,-2.3725155E-1,-2.1012355E-2,9.875324E-2,2.8455E4,2.9302E4,-1.5094624E-1,5.4E1,-8.74112E-2,-2.8609289E-2,-1.730299E-3,-2.0475136E-1,-1.8334292E-1,-1.7622804E-2,4.1138154E-2,-3.6852583E-2,-7.364499E-3,4.7420602E-2,6.0988534E-2,-1.657556E-1,-9.469809E-3,6.1043233E-2,-8.792082E-2,1.8232506E-2,-1.2576874E-1,-2.1664524E-2,1.2135644E-1,-5.4675634E-3,3.378706E-2,-2.3509668E-1,1.2456796E-1,-5.4037284E-2,-7.570561E-2,6.62046E-2,4.5872945E-2,-1.0543332E-1,4.246991E-2,-1.3919474E-1,1.6753952E-1,6.0987156E-3,9.1835305E-2,1.7046161E-1],"split_indices":[12,10,23,12,23,23,2,10,0,12,13,3,13,13,22,0,13,0,0,41,37,22,27,13,59,13,4,59,41,0,0,58,14,0,19,14,50,35,50,0,37,14,5,2,52,27,0,0,0,58,59,0,1,0,0,0,0,0,0,0,0,0,0,0,0,0,0,0,0,0,0,0,0,0,0,0,0,0,0,0,0,0,0,0,0,0,0],"split_type":[0,0,0,0,0,0,0,0,0,0,0,0,0,0,0,0,0,0,0,0,0,0,0,0,0,0,0,0,0,0,0,0,0,0,0,0,0,0,0,0,0,0,0,0,0,0,0,0,0,0,0,0,0,0,0,0,0,0,0,0,0,0,0,0,0,0,0,0,0,0,0,0,0,0,0,0,0,0,0,0,0,0,0,0,0,0,0],"sum_hessian":[8.81E2,5.36E2,3.45E2,1.13E2,4.23E2,1.39E2,2.06E2,1.07E2,6E0,3.73E2,5E1,1E2,3.9E1,1.89E2,1.7E1,9E0,9.8E1,2E0,4E0,1.81E2,1.92E2,2.9E1,2.1E1,2.6E1,7.4E1,3.4E1,5E0,1.35E2,5.4E1,7E0,1E1,8.9E1,9E0,4E0,1.77E2,1.73E2,1.9E1,1.4E1,1.5E1,5E0,1.6E1,1.7E1,9E0,4.3E1,3.1E1,2.3E1,1.1E1,1E0,4E0,9.8E1,3.7E1,1E0,5.3E1,6.6E1,2.3E1,1E0,8E0,3E0,1E0,1.5E1,1.62E2,1.02E2,7.1E1,7E0,1.2E1,6E0,8E0,1E1,5E0,1.5E1,1E0,9E0,8E0,2E0,7E0,4.2E1,1E0,4E0,2.7E1,9E0,1.4E1,9.2E1,6E0,3.2E1,5E0,1E1,4.3E1],"tree_param":{"num_deleted":"0","num_feature":"65","num_nodes":"87","size_leaf_vector":"1"}},{"base_weights":[-3.137394E-2,-4.2535174E-1,3.765173E-1,-7.0155454E-1,-1.83482E-1,2.8395137E-1,1.1758081E0,-5.1104426E-3,-8.2489544E-1,-3.7274167E-1,4.6029452E-2,3.993559E-1,-1.9683988E-1,6.1408013E-1,1.9530773E0,-1.4442009E-1,2.5205252E-1,-3.8212934E-1,-9.5325476E-1,2.4499811E-2,-6.294988E-1,1.8635556E-1,-3.8185096E-1,2.5915122E-1,1.0446838E0,1.3583766E-1,-3.517627E-1,2.7568328E-1,1.1617864E0,2.568008E-1,1.5190266E-1,3.2957643E-1,-9.205468E-2,-1.5416028E-1,-1.6862556E-1,-1.1867051E0,-4.0807402E-1,-1.3162945E-1,6.184025E-1,-7.839485E-1,2.1493402E-1,3.886764E-1,-2.5445193E-2,-8.7027824E-1,6.690941E-2,3.9400014E-1,-5.248242E-1,1.1720349E0,-4.6323356E-1,3.449428E-1,-6.4317197E-1,-7.932992E-2,7.2936606E-1,6.904404E-2,1.4950445E-1,-3.3577587E-2,4.960554E-2,-7.688679E-2,1.4706577E-2,-1.6479696E-1,-8.978558E-2,-6.0205985E-2,4.916231E-2,1.5769972E-3,-7.6004826E-2,7.1994E-2,-1.9848634E-2,-1.0171205E-1,-3.831796E-3,3.972582E-2,-9.864781E-2,-3.2702543E-2,4.521157E-2,1.1175774E-2,-4.0979482E-2,-4.6867788E-2,-1.2606989E-1,-2.5140032E-2,2.5120432E-2,7.0213854E-2,8.786424E-3,-5.0359144E-4,-1.5240297E-1,1.2591372E-1,-6.413161E-2,4.018208E-2,-1.17387675E-1,7.285016E-2,-7.35371E-2,-1.5040678E-2,-1.2930301E-1,-3.6420837E-2,2.1877019E-2,8.0806635E-2,8.923197E-3],"categories":[],"categories_nodes":[],"categories_segments":[],"categories_sizes":[],"default_left":[0,0,0,0,0,0,0,0,0,0,0,0,0,0,0,0,0,0,0,0,0,0,0,0,0,0,0,0,0,0,0,0,0,0,0,0,0,0,0,0,0,0,0,0,0,0,0,0,0,0,0,0,0,0,0,0,0,0,0,0,0,0,0,0,0,0,0,0,0,0,0,0,0,0,0,0,0,0,0,0,0,0,0,0,0,0,0,0,0,0,0,0,0,0,0],"id":19,"left_children":[1,3,5,7,9,11,13,15,17,19,21,23,25,27,29,-1,31,33,35,37,39,41,43,45,47,-1,49,51,53,-1,-1,55,-1,57,-1,59,61,63,65,67,69,71,73,75,77,79,81,83,85,87,89,91,93,-1,-1,-1,-1,-1,-1,-1,-1,-1,-1,-1,-1,-1,-1,-1,-1,-1,-1,-1,-1,-1,-1,-1,-1,-1,-1,-1,-1,-1,-1,-1,-1,-1,-1,-1,-1,-1,-1,-1,-1,-1,-1],"loss_changes":[1.3964783E2,2.9399132E1,3.1258606E1,1.7691193E1,1.0311787E1,2.1385027E1,1.801167E1,1.2206599E1,9.581543E0,1.3274719E1,6.5557823E0,2.777745E1,1.8548214E1,4.6839514E0,9.035263E-1,0E0,2.8487165E0,1.1929365E1,1.6697525E1,4.9031305E0,1.0471865E1,3.5237308E0,5.9762726E0,2.727065E1,1.1104843E1,0E0,1.4230682E1,2.9570017E0,5.3856087E-1,0E0,0E0,3.1572769E0,0E0,6.7790475E0,0E0,1.104454E1,7.6261816E0,3.902386E0,1.0552917E0,1.1609653E1,3.2394905E0,2.0548038E0,2.2078874E0,1.4474487E0,9.430956E-1,2.0597061E1,1.9728584E1,8.862816E0,3.5454133E0,9.237358E0,1.549666E1,1.0138233E0,